=== Run information ===

Scheme:       weka.classifiers.meta.RandomCommittee -S 1 -I 10 -W weka.classifiers.trees.RandomTree -- -K 1 -M 1.0 -S 1
Relation:     thresholds-weka.filters.unsupervised.attribute.Remove-R1
Instances:    475
Attributes:   5
              inlinks
              strMatches
              subMatches
              abbrMatch
              class
Test mode:    10-fold cross-validation

=== Classifier model (full training set) ===

All the base classifiers: 


RandomTree
==========

strMatches < 0.5
|   inlinks < 8.5 : 1 (1/0)
|   inlinks >= 8.5
|   |   inlinks < 413.5
|   |   |   inlinks < 405
|   |   |   |   inlinks < 135.5
|   |   |   |   |   inlinks < 127.5 : 0 (13/0)
|   |   |   |   |   inlinks >= 127.5 : 1 (1/0)
|   |   |   |   inlinks >= 135.5 : 0 (19/0)
|   |   |   inlinks >= 405 : 1 (1/0)
|   |   inlinks >= 413.5 : 0 (45/0)
strMatches >= 0.5
|   abbrMatch < 0.5
|   |   subMatches < 0.5
|   |   |   inlinks < 13108
|   |   |   |   inlinks < 1289.5
|   |   |   |   |   inlinks < 23.5
|   |   |   |   |   |   inlinks < 14
|   |   |   |   |   |   |   inlinks < 10.5
|   |   |   |   |   |   |   |   inlinks < 5.5
|   |   |   |   |   |   |   |   |   inlinks < 4.5
|   |   |   |   |   |   |   |   |   |   inlinks < 2.5
|   |   |   |   |   |   |   |   |   |   |   inlinks < 1.5 : 0 (3/1)
|   |   |   |   |   |   |   |   |   |   |   inlinks >= 1.5 : 1 (1/0)
|   |   |   |   |   |   |   |   |   |   inlinks >= 2.5
|   |   |   |   |   |   |   |   |   |   |   inlinks < 3.5 : 0 (1/0)
|   |   |   |   |   |   |   |   |   |   |   inlinks >= 3.5 : 0 (3/1)
|   |   |   |   |   |   |   |   |   inlinks >= 4.5 : 0 (5/0)
|   |   |   |   |   |   |   |   inlinks >= 5.5
|   |   |   |   |   |   |   |   |   inlinks < 8.5 : 1 (2/0)
|   |   |   |   |   |   |   |   |   inlinks >= 8.5
|   |   |   |   |   |   |   |   |   |   inlinks < 9.5 : 0 (1/0)
|   |   |   |   |   |   |   |   |   |   inlinks >= 9.5 : 1 (2/0)
|   |   |   |   |   |   |   inlinks >= 10.5 : 0 (3/0)
|   |   |   |   |   |   inlinks >= 14
|   |   |   |   |   |   |   inlinks < 18 : 1 (5/0)
|   |   |   |   |   |   |   inlinks >= 18
|   |   |   |   |   |   |   |   inlinks < 20.5 : 0 (1/0)
|   |   |   |   |   |   |   |   inlinks >= 20.5 : 1 (1/0)
|   |   |   |   |   inlinks >= 23.5
|   |   |   |   |   |   inlinks < 916.5
|   |   |   |   |   |   |   inlinks < 911
|   |   |   |   |   |   |   |   inlinks < 699.5
|   |   |   |   |   |   |   |   |   inlinks < 698
|   |   |   |   |   |   |   |   |   |   inlinks < 207
|   |   |   |   |   |   |   |   |   |   |   inlinks < 122.5
|   |   |   |   |   |   |   |   |   |   |   |   inlinks < 120.5
|   |   |   |   |   |   |   |   |   |   |   |   |   inlinks < 94.5
|   |   |   |   |   |   |   |   |   |   |   |   |   |   inlinks < 87.5
|   |   |   |   |   |   |   |   |   |   |   |   |   |   |   inlinks < 72
|   |   |   |   |   |   |   |   |   |   |   |   |   |   |   |   inlinks < 70
|   |   |   |   |   |   |   |   |   |   |   |   |   |   |   |   |   inlinks < 59.5
|   |   |   |   |   |   |   |   |   |   |   |   |   |   |   |   |   |   inlinks < 58.5
|   |   |   |   |   |   |   |   |   |   |   |   |   |   |   |   |   |   |   inlinks < 40.5
|   |   |   |   |   |   |   |   |   |   |   |   |   |   |   |   |   |   |   |   inlinks < 31.5 : 0 (7/0)
|   |   |   |   |   |   |   |   |   |   |   |   |   |   |   |   |   |   |   |   inlinks >= 31.5
|   |   |   |   |   |   |   |   |   |   |   |   |   |   |   |   |   |   |   |   |   inlinks < 33.5 : 1 (1/0)
|   |   |   |   |   |   |   |   |   |   |   |   |   |   |   |   |   |   |   |   |   inlinks >= 33.5
|   |   |   |   |   |   |   |   |   |   |   |   |   |   |   |   |   |   |   |   |   |   inlinks < 36.5 : 0 (6/0)
|   |   |   |   |   |   |   |   |   |   |   |   |   |   |   |   |   |   |   |   |   |   inlinks >= 36.5
|   |   |   |   |   |   |   |   |   |   |   |   |   |   |   |   |   |   |   |   |   |   |   inlinks < 38.5 : 0 (2/1)
|   |   |   |   |   |   |   |   |   |   |   |   |   |   |   |   |   |   |   |   |   |   |   inlinks >= 38.5 : 0 (3/1)
|   |   |   |   |   |   |   |   |   |   |   |   |   |   |   |   |   |   |   inlinks >= 40.5 : 0 (23/0)
|   |   |   |   |   |   |   |   |   |   |   |   |   |   |   |   |   |   inlinks >= 58.5 : 1 (3/1)
|   |   |   |   |   |   |   |   |   |   |   |   |   |   |   |   |   inlinks >= 59.5 : 0 (8/0)
|   |   |   |   |   |   |   |   |   |   |   |   |   |   |   |   inlinks >= 70 : 1 (1/0)
|   |   |   |   |   |   |   |   |   |   |   |   |   |   |   inlinks >= 72 : 0 (11/0)
|   |   |   |   |   |   |   |   |   |   |   |   |   |   inlinks >= 87.5
|   |   |   |   |   |   |   |   |   |   |   |   |   |   |   inlinks < 91.5 : 0 (2/1)
|   |   |   |   |   |   |   |   |   |   |   |   |   |   |   inlinks >= 91.5
|   |   |   |   |   |   |   |   |   |   |   |   |   |   |   |   inlinks < 93 : 0 (1/0)
|   |   |   |   |   |   |   |   |   |   |   |   |   |   |   |   inlinks >= 93 : 0 (4/1)
|   |   |   |   |   |   |   |   |   |   |   |   |   inlinks >= 94.5 : 0 (23/0)
|   |   |   |   |   |   |   |   |   |   |   |   inlinks >= 120.5 : 1 (1/0)
|   |   |   |   |   |   |   |   |   |   |   inlinks >= 122.5 : 0 (25/0)
|   |   |   |   |   |   |   |   |   |   inlinks >= 207
|   |   |   |   |   |   |   |   |   |   |   inlinks < 233.5
|   |   |   |   |   |   |   |   |   |   |   |   inlinks < 222
|   |   |   |   |   |   |   |   |   |   |   |   |   inlinks < 210.5
|   |   |   |   |   |   |   |   |   |   |   |   |   |   inlinks < 209.5
|   |   |   |   |   |   |   |   |   |   |   |   |   |   |   inlinks < 208.5 : 1 (1/0)
|   |   |   |   |   |   |   |   |   |   |   |   |   |   |   inlinks >= 208.5 : 0 (1/0)
|   |   |   |   |   |   |   |   |   |   |   |   |   |   inlinks >= 209.5 : 1 (2/0)
|   |   |   |   |   |   |   |   |   |   |   |   |   inlinks >= 210.5
|   |   |   |   |   |   |   |   |   |   |   |   |   |   inlinks < 214.5 : 0 (3/0)
|   |   |   |   |   |   |   |   |   |   |   |   |   |   inlinks >= 214.5
|   |   |   |   |   |   |   |   |   |   |   |   |   |   |   inlinks < 215.5 : 0 (3/1)
|   |   |   |   |   |   |   |   |   |   |   |   |   |   |   inlinks >= 215.5 : 0 (2/0)
|   |   |   |   |   |   |   |   |   |   |   |   inlinks >= 222 : 1 (2/0)
|   |   |   |   |   |   |   |   |   |   |   inlinks >= 233.5
|   |   |   |   |   |   |   |   |   |   |   |   inlinks < 496
|   |   |   |   |   |   |   |   |   |   |   |   |   inlinks < 340
|   |   |   |   |   |   |   |   |   |   |   |   |   |   inlinks < 330 : 0 (18/0)
|   |   |   |   |   |   |   |   |   |   |   |   |   |   inlinks >= 330 : 1 (1/0)
|   |   |   |   |   |   |   |   |   |   |   |   |   inlinks >= 340 : 0 (21/0)
|   |   |   |   |   |   |   |   |   |   |   |   inlinks >= 496
|   |   |   |   |   |   |   |   |   |   |   |   |   inlinks < 503.5 : 1 (1/0)
|   |   |   |   |   |   |   |   |   |   |   |   |   inlinks >= 503.5
|   |   |   |   |   |   |   |   |   |   |   |   |   |   inlinks < 645 : 0 (10/0)
|   |   |   |   |   |   |   |   |   |   |   |   |   |   inlinks >= 645
|   |   |   |   |   |   |   |   |   |   |   |   |   |   |   inlinks < 662.5 : 1 (2/0)
|   |   |   |   |   |   |   |   |   |   |   |   |   |   |   inlinks >= 662.5 : 0 (7/0)
|   |   |   |   |   |   |   |   |   inlinks >= 698 : 1 (2/0)
|   |   |   |   |   |   |   |   inlinks >= 699.5 : 0 (15/0)
|   |   |   |   |   |   |   inlinks >= 911 : 1 (1/0)
|   |   |   |   |   |   inlinks >= 916.5 : 0 (15/0)
|   |   |   |   inlinks >= 1289.5
|   |   |   |   |   inlinks < 1316.5 : 1 (3/0)
|   |   |   |   |   inlinks >= 1316.5
|   |   |   |   |   |   inlinks < 1626 : 0 (8/0)
|   |   |   |   |   |   inlinks >= 1626
|   |   |   |   |   |   |   inlinks < 4546.5
|   |   |   |   |   |   |   |   inlinks < 4049
|   |   |   |   |   |   |   |   |   inlinks < 1689.5 : 1 (2/0)
|   |   |   |   |   |   |   |   |   inlinks >= 1689.5
|   |   |   |   |   |   |   |   |   |   inlinks < 2706
|   |   |   |   |   |   |   |   |   |   |   inlinks < 2375
|   |   |   |   |   |   |   |   |   |   |   |   inlinks < 2300.5
|   |   |   |   |   |   |   |   |   |   |   |   |   inlinks < 1741.5 : 0 (2/0)
|   |   |   |   |   |   |   |   |   |   |   |   |   inlinks >= 1741.5
|   |   |   |   |   |   |   |   |   |   |   |   |   |   inlinks < 1830 : 1 (1/0)
|   |   |   |   |   |   |   |   |   |   |   |   |   |   inlinks >= 1830
|   |   |   |   |   |   |   |   |   |   |   |   |   |   |   inlinks < 2115.5 : 0 (3/0)
|   |   |   |   |   |   |   |   |   |   |   |   |   |   |   inlinks >= 2115.5
|   |   |   |   |   |   |   |   |   |   |   |   |   |   |   |   inlinks < 2165.5 : 1 (1/0)
|   |   |   |   |   |   |   |   |   |   |   |   |   |   |   |   inlinks >= 2165.5 : 0 (2/0)
|   |   |   |   |   |   |   |   |   |   |   |   inlinks >= 2300.5 : 1 (1/0)
|   |   |   |   |   |   |   |   |   |   |   inlinks >= 2375
|   |   |   |   |   |   |   |   |   |   |   |   inlinks < 2474.5 : 0 (6/0)
|   |   |   |   |   |   |   |   |   |   |   |   inlinks >= 2474.5
|   |   |   |   |   |   |   |   |   |   |   |   |   inlinks < 2496 : 1 (1/0)
|   |   |   |   |   |   |   |   |   |   |   |   |   inlinks >= 2496 : 0 (2/0)
|   |   |   |   |   |   |   |   |   |   inlinks >= 2706
|   |   |   |   |   |   |   |   |   |   |   inlinks < 3262.5 : 1 (4/0)
|   |   |   |   |   |   |   |   |   |   |   inlinks >= 3262.5 : 0 (3/0)
|   |   |   |   |   |   |   |   inlinks >= 4049 : 1 (7/0)
|   |   |   |   |   |   |   inlinks >= 4546.5
|   |   |   |   |   |   |   |   inlinks < 9823.5
|   |   |   |   |   |   |   |   |   inlinks < 9045.5
|   |   |   |   |   |   |   |   |   |   inlinks < 7382.5
|   |   |   |   |   |   |   |   |   |   |   inlinks < 6779.5
|   |   |   |   |   |   |   |   |   |   |   |   inlinks < 4904 : 0 (3/0)
|   |   |   |   |   |   |   |   |   |   |   |   inlinks >= 4904
|   |   |   |   |   |   |   |   |   |   |   |   |   inlinks < 5332.5 : 1 (1/0)
|   |   |   |   |   |   |   |   |   |   |   |   |   inlinks >= 5332.5
|   |   |   |   |   |   |   |   |   |   |   |   |   |   inlinks < 5994.5 : 0 (4/0)
|   |   |   |   |   |   |   |   |   |   |   |   |   |   inlinks >= 5994.5
|   |   |   |   |   |   |   |   |   |   |   |   |   |   |   inlinks < 6078.5 : 1 (1/0)
|   |   |   |   |   |   |   |   |   |   |   |   |   |   |   inlinks >= 6078.5 : 0 (3/0)
|   |   |   |   |   |   |   |   |   |   |   inlinks >= 6779.5 : 1 (1/0)
|   |   |   |   |   |   |   |   |   |   inlinks >= 7382.5 : 0 (7/0)
|   |   |   |   |   |   |   |   |   inlinks >= 9045.5 : 1 (2/0)
|   |   |   |   |   |   |   |   inlinks >= 9823.5 : 0 (6/0)
|   |   |   inlinks >= 13108 : 1 (13/0)
|   |   subMatches >= 0.5
|   |   |   inlinks < 326
|   |   |   |   inlinks < 253 : 1 (6/0)
|   |   |   |   inlinks >= 253 : 0 (1/0)
|   |   |   inlinks >= 326 : 1 (9/0)
|   abbrMatch >= 0.5
|   |   inlinks < 253 : 0 (14/0)
|   |   inlinks >= 253
|   |   |   inlinks < 226608
|   |   |   |   inlinks < 13043
|   |   |   |   |   inlinks < 3285.5
|   |   |   |   |   |   inlinks < 260.5 : 1 (1/0)
|   |   |   |   |   |   inlinks >= 260.5
|   |   |   |   |   |   |   inlinks < 374.5 : 0 (3/0)
|   |   |   |   |   |   |   inlinks >= 374.5
|   |   |   |   |   |   |   |   inlinks < 450.5 : 1 (1/0)
|   |   |   |   |   |   |   |   inlinks >= 450.5
|   |   |   |   |   |   |   |   |   inlinks < 978 : 0 (2/0)
|   |   |   |   |   |   |   |   |   inlinks >= 978
|   |   |   |   |   |   |   |   |   |   inlinks < 1156 : 1 (1/0)
|   |   |   |   |   |   |   |   |   |   inlinks >= 1156
|   |   |   |   |   |   |   |   |   |   |   inlinks < 1849 : 0 (3/0)
|   |   |   |   |   |   |   |   |   |   |   inlinks >= 1849
|   |   |   |   |   |   |   |   |   |   |   |   inlinks < 1973 : 1 (1/0)
|   |   |   |   |   |   |   |   |   |   |   |   inlinks >= 1973 : 0 (2/0)
|   |   |   |   |   inlinks >= 3285.5 : 1 (2/0)
|   |   |   |   inlinks >= 13043 : 0 (3/0)
|   |   |   inlinks >= 226608 : 1 (3/0)

Size of the tree : 183


RandomTree
==========

inlinks < 3035.5
|   strMatches < 0.5
|   |   inlinks < 8.5 : 1 (1/0)
|   |   inlinks >= 8.5
|   |   |   inlinks < 413.5
|   |   |   |   inlinks < 405
|   |   |   |   |   inlinks < 135.5
|   |   |   |   |   |   inlinks < 127.5 : 0 (13/0)
|   |   |   |   |   |   inlinks >= 127.5 : 1 (1/0)
|   |   |   |   |   inlinks >= 135.5 : 0 (19/0)
|   |   |   |   inlinks >= 405 : 1 (1/0)
|   |   |   inlinks >= 413.5 : 0 (23/0)
|   strMatches >= 0.5
|   |   abbrMatch < 0.5
|   |   |   subMatches < 0.5
|   |   |   |   inlinks < 23.5
|   |   |   |   |   inlinks < 14
|   |   |   |   |   |   inlinks < 10.5
|   |   |   |   |   |   |   inlinks < 5.5
|   |   |   |   |   |   |   |   inlinks < 4.5
|   |   |   |   |   |   |   |   |   inlinks < 2.5
|   |   |   |   |   |   |   |   |   |   inlinks < 1.5 : 0 (3/1)
|   |   |   |   |   |   |   |   |   |   inlinks >= 1.5 : 1 (1/0)
|   |   |   |   |   |   |   |   |   inlinks >= 2.5
|   |   |   |   |   |   |   |   |   |   inlinks < 3.5 : 0 (1/0)
|   |   |   |   |   |   |   |   |   |   inlinks >= 3.5 : 0 (3/1)
|   |   |   |   |   |   |   |   inlinks >= 4.5 : 0 (5/0)
|   |   |   |   |   |   |   inlinks >= 5.5
|   |   |   |   |   |   |   |   inlinks < 8.5 : 1 (2/0)
|   |   |   |   |   |   |   |   inlinks >= 8.5
|   |   |   |   |   |   |   |   |   inlinks < 9.5 : 0 (1/0)
|   |   |   |   |   |   |   |   |   inlinks >= 9.5 : 1 (2/0)
|   |   |   |   |   |   inlinks >= 10.5 : 0 (3/0)
|   |   |   |   |   inlinks >= 14
|   |   |   |   |   |   inlinks < 18 : 1 (5/0)
|   |   |   |   |   |   inlinks >= 18
|   |   |   |   |   |   |   inlinks < 20.5 : 0 (1/0)
|   |   |   |   |   |   |   inlinks >= 20.5 : 1 (1/0)
|   |   |   |   inlinks >= 23.5
|   |   |   |   |   inlinks < 1289.5
|   |   |   |   |   |   inlinks < 916.5
|   |   |   |   |   |   |   inlinks < 911
|   |   |   |   |   |   |   |   inlinks < 699.5
|   |   |   |   |   |   |   |   |   inlinks < 698
|   |   |   |   |   |   |   |   |   |   inlinks < 207
|   |   |   |   |   |   |   |   |   |   |   inlinks < 122.5
|   |   |   |   |   |   |   |   |   |   |   |   inlinks < 120.5
|   |   |   |   |   |   |   |   |   |   |   |   |   inlinks < 94.5
|   |   |   |   |   |   |   |   |   |   |   |   |   |   inlinks < 87.5
|   |   |   |   |   |   |   |   |   |   |   |   |   |   |   inlinks < 72
|   |   |   |   |   |   |   |   |   |   |   |   |   |   |   |   inlinks < 70
|   |   |   |   |   |   |   |   |   |   |   |   |   |   |   |   |   inlinks < 59.5
|   |   |   |   |   |   |   |   |   |   |   |   |   |   |   |   |   |   inlinks < 58.5
|   |   |   |   |   |   |   |   |   |   |   |   |   |   |   |   |   |   |   inlinks < 40.5
|   |   |   |   |   |   |   |   |   |   |   |   |   |   |   |   |   |   |   |   inlinks < 31.5 : 0 (7/0)
|   |   |   |   |   |   |   |   |   |   |   |   |   |   |   |   |   |   |   |   inlinks >= 31.5
|   |   |   |   |   |   |   |   |   |   |   |   |   |   |   |   |   |   |   |   |   inlinks < 33.5 : 1 (1/0)
|   |   |   |   |   |   |   |   |   |   |   |   |   |   |   |   |   |   |   |   |   inlinks >= 33.5
|   |   |   |   |   |   |   |   |   |   |   |   |   |   |   |   |   |   |   |   |   |   inlinks < 36.5 : 0 (6/0)
|   |   |   |   |   |   |   |   |   |   |   |   |   |   |   |   |   |   |   |   |   |   inlinks >= 36.5
|   |   |   |   |   |   |   |   |   |   |   |   |   |   |   |   |   |   |   |   |   |   |   inlinks < 38.5 : 0 (2/1)
|   |   |   |   |   |   |   |   |   |   |   |   |   |   |   |   |   |   |   |   |   |   |   inlinks >= 38.5 : 0 (3/1)
|   |   |   |   |   |   |   |   |   |   |   |   |   |   |   |   |   |   |   inlinks >= 40.5 : 0 (23/0)
|   |   |   |   |   |   |   |   |   |   |   |   |   |   |   |   |   |   inlinks >= 58.5 : 1 (3/1)
|   |   |   |   |   |   |   |   |   |   |   |   |   |   |   |   |   inlinks >= 59.5 : 0 (8/0)
|   |   |   |   |   |   |   |   |   |   |   |   |   |   |   |   inlinks >= 70 : 1 (1/0)
|   |   |   |   |   |   |   |   |   |   |   |   |   |   |   inlinks >= 72 : 0 (11/0)
|   |   |   |   |   |   |   |   |   |   |   |   |   |   inlinks >= 87.5
|   |   |   |   |   |   |   |   |   |   |   |   |   |   |   inlinks < 91.5 : 0 (2/1)
|   |   |   |   |   |   |   |   |   |   |   |   |   |   |   inlinks >= 91.5
|   |   |   |   |   |   |   |   |   |   |   |   |   |   |   |   inlinks < 93 : 0 (1/0)
|   |   |   |   |   |   |   |   |   |   |   |   |   |   |   |   inlinks >= 93 : 0 (4/1)
|   |   |   |   |   |   |   |   |   |   |   |   |   inlinks >= 94.5 : 0 (23/0)
|   |   |   |   |   |   |   |   |   |   |   |   inlinks >= 120.5 : 1 (1/0)
|   |   |   |   |   |   |   |   |   |   |   inlinks >= 122.5 : 0 (25/0)
|   |   |   |   |   |   |   |   |   |   inlinks >= 207
|   |   |   |   |   |   |   |   |   |   |   inlinks < 233.5
|   |   |   |   |   |   |   |   |   |   |   |   inlinks < 222
|   |   |   |   |   |   |   |   |   |   |   |   |   inlinks < 210.5
|   |   |   |   |   |   |   |   |   |   |   |   |   |   inlinks < 209.5
|   |   |   |   |   |   |   |   |   |   |   |   |   |   |   inlinks < 208.5 : 1 (1/0)
|   |   |   |   |   |   |   |   |   |   |   |   |   |   |   inlinks >= 208.5 : 0 (1/0)
|   |   |   |   |   |   |   |   |   |   |   |   |   |   inlinks >= 209.5 : 1 (2/0)
|   |   |   |   |   |   |   |   |   |   |   |   |   inlinks >= 210.5
|   |   |   |   |   |   |   |   |   |   |   |   |   |   inlinks < 214.5 : 0 (3/0)
|   |   |   |   |   |   |   |   |   |   |   |   |   |   inlinks >= 214.5
|   |   |   |   |   |   |   |   |   |   |   |   |   |   |   inlinks < 215.5 : 0 (3/1)
|   |   |   |   |   |   |   |   |   |   |   |   |   |   |   inlinks >= 215.5 : 0 (2/0)
|   |   |   |   |   |   |   |   |   |   |   |   inlinks >= 222 : 1 (2/0)
|   |   |   |   |   |   |   |   |   |   |   inlinks >= 233.5
|   |   |   |   |   |   |   |   |   |   |   |   inlinks < 496
|   |   |   |   |   |   |   |   |   |   |   |   |   inlinks < 340
|   |   |   |   |   |   |   |   |   |   |   |   |   |   inlinks < 330 : 0 (18/0)
|   |   |   |   |   |   |   |   |   |   |   |   |   |   inlinks >= 330 : 1 (1/0)
|   |   |   |   |   |   |   |   |   |   |   |   |   inlinks >= 340 : 0 (21/0)
|   |   |   |   |   |   |   |   |   |   |   |   inlinks >= 496
|   |   |   |   |   |   |   |   |   |   |   |   |   inlinks < 503.5 : 1 (1/0)
|   |   |   |   |   |   |   |   |   |   |   |   |   inlinks >= 503.5
|   |   |   |   |   |   |   |   |   |   |   |   |   |   inlinks < 645 : 0 (10/0)
|   |   |   |   |   |   |   |   |   |   |   |   |   |   inlinks >= 645
|   |   |   |   |   |   |   |   |   |   |   |   |   |   |   inlinks < 662.5 : 1 (2/0)
|   |   |   |   |   |   |   |   |   |   |   |   |   |   |   inlinks >= 662.5 : 0 (7/0)
|   |   |   |   |   |   |   |   |   inlinks >= 698 : 1 (2/0)
|   |   |   |   |   |   |   |   inlinks >= 699.5 : 0 (15/0)
|   |   |   |   |   |   |   inlinks >= 911 : 1 (1/0)
|   |   |   |   |   |   inlinks >= 916.5 : 0 (15/0)
|   |   |   |   |   inlinks >= 1289.5
|   |   |   |   |   |   inlinks < 1316.5 : 1 (3/0)
|   |   |   |   |   |   inlinks >= 1316.5
|   |   |   |   |   |   |   inlinks < 1626 : 0 (8/0)
|   |   |   |   |   |   |   inlinks >= 1626
|   |   |   |   |   |   |   |   inlinks < 1689.5 : 1 (2/0)
|   |   |   |   |   |   |   |   inlinks >= 1689.5
|   |   |   |   |   |   |   |   |   inlinks < 2706
|   |   |   |   |   |   |   |   |   |   inlinks < 2375
|   |   |   |   |   |   |   |   |   |   |   inlinks < 2300.5
|   |   |   |   |   |   |   |   |   |   |   |   inlinks < 1741.5 : 0 (2/0)
|   |   |   |   |   |   |   |   |   |   |   |   inlinks >= 1741.5
|   |   |   |   |   |   |   |   |   |   |   |   |   inlinks < 1830 : 1 (1/0)
|   |   |   |   |   |   |   |   |   |   |   |   |   inlinks >= 1830
|   |   |   |   |   |   |   |   |   |   |   |   |   |   inlinks < 2115.5 : 0 (3/0)
|   |   |   |   |   |   |   |   |   |   |   |   |   |   inlinks >= 2115.5
|   |   |   |   |   |   |   |   |   |   |   |   |   |   |   inlinks < 2165.5 : 1 (1/0)
|   |   |   |   |   |   |   |   |   |   |   |   |   |   |   inlinks >= 2165.5 : 0 (2/0)
|   |   |   |   |   |   |   |   |   |   |   inlinks >= 2300.5 : 1 (1/0)
|   |   |   |   |   |   |   |   |   |   inlinks >= 2375
|   |   |   |   |   |   |   |   |   |   |   inlinks < 2474.5 : 0 (6/0)
|   |   |   |   |   |   |   |   |   |   |   inlinks >= 2474.5
|   |   |   |   |   |   |   |   |   |   |   |   inlinks < 2496 : 1 (1/0)
|   |   |   |   |   |   |   |   |   |   |   |   inlinks >= 2496 : 0 (2/0)
|   |   |   |   |   |   |   |   |   inlinks >= 2706 : 1 (1/0)
|   |   |   subMatches >= 0.5
|   |   |   |   inlinks < 253 : 1 (6/0)
|   |   |   |   inlinks >= 253
|   |   |   |   |   subMatches < 1.5
|   |   |   |   |   |   inlinks < 1346 : 0 (1/0)
|   |   |   |   |   |   inlinks >= 1346 : 1 (1/0)
|   |   |   |   |   subMatches >= 1.5 : 1 (2/0)
|   |   abbrMatch >= 0.5
|   |   |   inlinks < 253 : 0 (14/0)
|   |   |   inlinks >= 253
|   |   |   |   inlinks < 260.5 : 1 (1/0)
|   |   |   |   inlinks >= 260.5
|   |   |   |   |   inlinks < 374.5 : 0 (3/0)
|   |   |   |   |   inlinks >= 374.5
|   |   |   |   |   |   inlinks < 450.5 : 1 (1/0)
|   |   |   |   |   |   inlinks >= 450.5
|   |   |   |   |   |   |   inlinks < 978 : 0 (2/0)
|   |   |   |   |   |   |   inlinks >= 978
|   |   |   |   |   |   |   |   inlinks < 1156 : 1 (1/0)
|   |   |   |   |   |   |   |   inlinks >= 1156
|   |   |   |   |   |   |   |   |   inlinks < 1849 : 0 (3/0)
|   |   |   |   |   |   |   |   |   inlinks >= 1849
|   |   |   |   |   |   |   |   |   |   inlinks < 1973 : 1 (1/0)
|   |   |   |   |   |   |   |   |   |   inlinks >= 1973 : 0 (2/0)
inlinks >= 3035.5
|   subMatches < 0.5
|   |   inlinks < 23020
|   |   |   inlinks < 4624.5
|   |   |   |   abbrMatch < 0.5
|   |   |   |   |   inlinks < 4049
|   |   |   |   |   |   inlinks < 3262.5 : 1 (3/0)
|   |   |   |   |   |   inlinks >= 3262.5 : 0 (3/0)
|   |   |   |   |   inlinks >= 4049 : 1 (7/0)
|   |   |   |   abbrMatch >= 0.5 : 1 (2/0)
|   |   |   inlinks >= 4624.5
|   |   |   |   inlinks < 13108
|   |   |   |   |   inlinks < 9823.5
|   |   |   |   |   |   inlinks < 9045.5
|   |   |   |   |   |   |   inlinks < 7382.5
|   |   |   |   |   |   |   |   inlinks < 6779.5
|   |   |   |   |   |   |   |   |   inlinks < 4904 : 0 (3/0)
|   |   |   |   |   |   |   |   |   inlinks >= 4904
|   |   |   |   |   |   |   |   |   |   inlinks < 5332.5 : 1 (1/0)
|   |   |   |   |   |   |   |   |   |   inlinks >= 5332.5
|   |   |   |   |   |   |   |   |   |   |   inlinks < 5994.5 : 0 (4/0)
|   |   |   |   |   |   |   |   |   |   |   inlinks >= 5994.5
|   |   |   |   |   |   |   |   |   |   |   |   inlinks < 6078.5 : 1 (1/0)
|   |   |   |   |   |   |   |   |   |   |   |   inlinks >= 6078.5 : 0 (3/0)
|   |   |   |   |   |   |   |   inlinks >= 6779.5 : 1 (1/0)
|   |   |   |   |   |   |   inlinks >= 7382.5 : 0 (7/0)
|   |   |   |   |   |   inlinks >= 9045.5 : 1 (2/0)
|   |   |   |   |   inlinks >= 9823.5 : 0 (6/0)
|   |   |   |   inlinks >= 13108
|   |   |   |   |   inlinks < 21266 : 1 (5/0)
|   |   |   |   |   inlinks >= 21266 : 0 (3/0)
|   |   inlinks >= 23020 : 1 (11/0)
|   subMatches >= 0.5
|   |   strMatches < 0.5 : 0 (22/0)
|   |   strMatches >= 0.5 : 1 (6/0)

Size of the tree : 191


RandomTree
==========

subMatches < 1.5
|   strMatches < 0.5
|   |   inlinks < 8.5 : 1 (1/0)
|   |   inlinks >= 8.5
|   |   |   inlinks < 413.5
|   |   |   |   inlinks < 405
|   |   |   |   |   inlinks < 135.5
|   |   |   |   |   |   inlinks < 127.5 : 0 (13/0)
|   |   |   |   |   |   inlinks >= 127.5 : 1 (1/0)
|   |   |   |   |   inlinks >= 135.5 : 0 (19/0)
|   |   |   |   inlinks >= 405 : 1 (1/0)
|   |   |   inlinks >= 413.5 : 0 (37/0)
|   strMatches >= 0.5
|   |   abbrMatch < 0.5
|   |   |   subMatches < 0.5
|   |   |   |   inlinks < 13108
|   |   |   |   |   inlinks < 1289.5
|   |   |   |   |   |   inlinks < 23.5
|   |   |   |   |   |   |   inlinks < 14
|   |   |   |   |   |   |   |   inlinks < 10.5
|   |   |   |   |   |   |   |   |   inlinks < 5.5
|   |   |   |   |   |   |   |   |   |   inlinks < 4.5
|   |   |   |   |   |   |   |   |   |   |   inlinks < 2.5
|   |   |   |   |   |   |   |   |   |   |   |   inlinks < 1.5 : 0 (3/1)
|   |   |   |   |   |   |   |   |   |   |   |   inlinks >= 1.5 : 1 (1/0)
|   |   |   |   |   |   |   |   |   |   |   inlinks >= 2.5
|   |   |   |   |   |   |   |   |   |   |   |   inlinks < 3.5 : 0 (1/0)
|   |   |   |   |   |   |   |   |   |   |   |   inlinks >= 3.5 : 0 (3/1)
|   |   |   |   |   |   |   |   |   |   inlinks >= 4.5 : 0 (5/0)
|   |   |   |   |   |   |   |   |   inlinks >= 5.5
|   |   |   |   |   |   |   |   |   |   inlinks < 8.5 : 1 (2/0)
|   |   |   |   |   |   |   |   |   |   inlinks >= 8.5
|   |   |   |   |   |   |   |   |   |   |   inlinks < 9.5 : 0 (1/0)
|   |   |   |   |   |   |   |   |   |   |   inlinks >= 9.5 : 1 (2/0)
|   |   |   |   |   |   |   |   inlinks >= 10.5 : 0 (3/0)
|   |   |   |   |   |   |   inlinks >= 14
|   |   |   |   |   |   |   |   inlinks < 18 : 1 (5/0)
|   |   |   |   |   |   |   |   inlinks >= 18
|   |   |   |   |   |   |   |   |   inlinks < 20.5 : 0 (1/0)
|   |   |   |   |   |   |   |   |   inlinks >= 20.5 : 1 (1/0)
|   |   |   |   |   |   inlinks >= 23.5
|   |   |   |   |   |   |   inlinks < 916.5
|   |   |   |   |   |   |   |   inlinks < 911
|   |   |   |   |   |   |   |   |   inlinks < 699.5
|   |   |   |   |   |   |   |   |   |   inlinks < 698
|   |   |   |   |   |   |   |   |   |   |   inlinks < 207
|   |   |   |   |   |   |   |   |   |   |   |   inlinks < 122.5
|   |   |   |   |   |   |   |   |   |   |   |   |   inlinks < 120.5
|   |   |   |   |   |   |   |   |   |   |   |   |   |   inlinks < 94.5
|   |   |   |   |   |   |   |   |   |   |   |   |   |   |   inlinks < 87.5
|   |   |   |   |   |   |   |   |   |   |   |   |   |   |   |   inlinks < 72
|   |   |   |   |   |   |   |   |   |   |   |   |   |   |   |   |   inlinks < 70
|   |   |   |   |   |   |   |   |   |   |   |   |   |   |   |   |   |   inlinks < 59.5
|   |   |   |   |   |   |   |   |   |   |   |   |   |   |   |   |   |   |   inlinks < 58.5
|   |   |   |   |   |   |   |   |   |   |   |   |   |   |   |   |   |   |   |   inlinks < 40.5
|   |   |   |   |   |   |   |   |   |   |   |   |   |   |   |   |   |   |   |   |   inlinks < 31.5 : 0 (7/0)
|   |   |   |   |   |   |   |   |   |   |   |   |   |   |   |   |   |   |   |   |   inlinks >= 31.5
|   |   |   |   |   |   |   |   |   |   |   |   |   |   |   |   |   |   |   |   |   |   inlinks < 33.5 : 1 (1/0)
|   |   |   |   |   |   |   |   |   |   |   |   |   |   |   |   |   |   |   |   |   |   inlinks >= 33.5
|   |   |   |   |   |   |   |   |   |   |   |   |   |   |   |   |   |   |   |   |   |   |   inlinks < 36.5 : 0 (6/0)
|   |   |   |   |   |   |   |   |   |   |   |   |   |   |   |   |   |   |   |   |   |   |   inlinks >= 36.5
|   |   |   |   |   |   |   |   |   |   |   |   |   |   |   |   |   |   |   |   |   |   |   |   inlinks < 38.5 : 0 (2/1)
|   |   |   |   |   |   |   |   |   |   |   |   |   |   |   |   |   |   |   |   |   |   |   |   inlinks >= 38.5 : 0 (3/1)
|   |   |   |   |   |   |   |   |   |   |   |   |   |   |   |   |   |   |   |   inlinks >= 40.5 : 0 (23/0)
|   |   |   |   |   |   |   |   |   |   |   |   |   |   |   |   |   |   |   inlinks >= 58.5 : 1 (3/1)
|   |   |   |   |   |   |   |   |   |   |   |   |   |   |   |   |   |   inlinks >= 59.5 : 0 (8/0)
|   |   |   |   |   |   |   |   |   |   |   |   |   |   |   |   |   inlinks >= 70 : 1 (1/0)
|   |   |   |   |   |   |   |   |   |   |   |   |   |   |   |   inlinks >= 72 : 0 (11/0)
|   |   |   |   |   |   |   |   |   |   |   |   |   |   |   inlinks >= 87.5
|   |   |   |   |   |   |   |   |   |   |   |   |   |   |   |   inlinks < 91.5 : 0 (2/1)
|   |   |   |   |   |   |   |   |   |   |   |   |   |   |   |   inlinks >= 91.5
|   |   |   |   |   |   |   |   |   |   |   |   |   |   |   |   |   inlinks < 93 : 0 (1/0)
|   |   |   |   |   |   |   |   |   |   |   |   |   |   |   |   |   inlinks >= 93 : 0 (4/1)
|   |   |   |   |   |   |   |   |   |   |   |   |   |   inlinks >= 94.5 : 0 (23/0)
|   |   |   |   |   |   |   |   |   |   |   |   |   inlinks >= 120.5 : 1 (1/0)
|   |   |   |   |   |   |   |   |   |   |   |   inlinks >= 122.5 : 0 (25/0)
|   |   |   |   |   |   |   |   |   |   |   inlinks >= 207
|   |   |   |   |   |   |   |   |   |   |   |   inlinks < 233.5
|   |   |   |   |   |   |   |   |   |   |   |   |   inlinks < 222
|   |   |   |   |   |   |   |   |   |   |   |   |   |   inlinks < 210.5
|   |   |   |   |   |   |   |   |   |   |   |   |   |   |   inlinks < 209.5
|   |   |   |   |   |   |   |   |   |   |   |   |   |   |   |   inlinks < 208.5 : 1 (1/0)
|   |   |   |   |   |   |   |   |   |   |   |   |   |   |   |   inlinks >= 208.5 : 0 (1/0)
|   |   |   |   |   |   |   |   |   |   |   |   |   |   |   inlinks >= 209.5 : 1 (2/0)
|   |   |   |   |   |   |   |   |   |   |   |   |   |   inlinks >= 210.5
|   |   |   |   |   |   |   |   |   |   |   |   |   |   |   inlinks < 214.5 : 0 (3/0)
|   |   |   |   |   |   |   |   |   |   |   |   |   |   |   inlinks >= 214.5
|   |   |   |   |   |   |   |   |   |   |   |   |   |   |   |   inlinks < 215.5 : 0 (3/1)
|   |   |   |   |   |   |   |   |   |   |   |   |   |   |   |   inlinks >= 215.5 : 0 (2/0)
|   |   |   |   |   |   |   |   |   |   |   |   |   inlinks >= 222 : 1 (2/0)
|   |   |   |   |   |   |   |   |   |   |   |   inlinks >= 233.5
|   |   |   |   |   |   |   |   |   |   |   |   |   inlinks < 496
|   |   |   |   |   |   |   |   |   |   |   |   |   |   inlinks < 340
|   |   |   |   |   |   |   |   |   |   |   |   |   |   |   inlinks < 330 : 0 (18/0)
|   |   |   |   |   |   |   |   |   |   |   |   |   |   |   inlinks >= 330 : 1 (1/0)
|   |   |   |   |   |   |   |   |   |   |   |   |   |   inlinks >= 340 : 0 (21/0)
|   |   |   |   |   |   |   |   |   |   |   |   |   inlinks >= 496
|   |   |   |   |   |   |   |   |   |   |   |   |   |   inlinks < 503.5 : 1 (1/0)
|   |   |   |   |   |   |   |   |   |   |   |   |   |   inlinks >= 503.5
|   |   |   |   |   |   |   |   |   |   |   |   |   |   |   inlinks < 645 : 0 (10/0)
|   |   |   |   |   |   |   |   |   |   |   |   |   |   |   inlinks >= 645
|   |   |   |   |   |   |   |   |   |   |   |   |   |   |   |   inlinks < 662.5 : 1 (2/0)
|   |   |   |   |   |   |   |   |   |   |   |   |   |   |   |   inlinks >= 662.5 : 0 (7/0)
|   |   |   |   |   |   |   |   |   |   inlinks >= 698 : 1 (2/0)
|   |   |   |   |   |   |   |   |   inlinks >= 699.5 : 0 (15/0)
|   |   |   |   |   |   |   |   inlinks >= 911 : 1 (1/0)
|   |   |   |   |   |   |   inlinks >= 916.5 : 0 (15/0)
|   |   |   |   |   inlinks >= 1289.5
|   |   |   |   |   |   inlinks < 1316.5 : 1 (3/0)
|   |   |   |   |   |   inlinks >= 1316.5
|   |   |   |   |   |   |   inlinks < 1626 : 0 (8/0)
|   |   |   |   |   |   |   inlinks >= 1626
|   |   |   |   |   |   |   |   inlinks < 4546.5
|   |   |   |   |   |   |   |   |   inlinks < 4049
|   |   |   |   |   |   |   |   |   |   inlinks < 1689.5 : 1 (2/0)
|   |   |   |   |   |   |   |   |   |   inlinks >= 1689.5
|   |   |   |   |   |   |   |   |   |   |   inlinks < 2706
|   |   |   |   |   |   |   |   |   |   |   |   inlinks < 2375
|   |   |   |   |   |   |   |   |   |   |   |   |   inlinks < 2300.5
|   |   |   |   |   |   |   |   |   |   |   |   |   |   inlinks < 1741.5 : 0 (2/0)
|   |   |   |   |   |   |   |   |   |   |   |   |   |   inlinks >= 1741.5
|   |   |   |   |   |   |   |   |   |   |   |   |   |   |   inlinks < 1830 : 1 (1/0)
|   |   |   |   |   |   |   |   |   |   |   |   |   |   |   inlinks >= 1830
|   |   |   |   |   |   |   |   |   |   |   |   |   |   |   |   inlinks < 2115.5 : 0 (3/0)
|   |   |   |   |   |   |   |   |   |   |   |   |   |   |   |   inlinks >= 2115.5
|   |   |   |   |   |   |   |   |   |   |   |   |   |   |   |   |   inlinks < 2165.5 : 1 (1/0)
|   |   |   |   |   |   |   |   |   |   |   |   |   |   |   |   |   inlinks >= 2165.5 : 0 (2/0)
|   |   |   |   |   |   |   |   |   |   |   |   |   inlinks >= 2300.5 : 1 (1/0)
|   |   |   |   |   |   |   |   |   |   |   |   inlinks >= 2375
|   |   |   |   |   |   |   |   |   |   |   |   |   inlinks < 2474.5 : 0 (6/0)
|   |   |   |   |   |   |   |   |   |   |   |   |   inlinks >= 2474.5
|   |   |   |   |   |   |   |   |   |   |   |   |   |   inlinks < 2496 : 1 (1/0)
|   |   |   |   |   |   |   |   |   |   |   |   |   |   inlinks >= 2496 : 0 (2/0)
|   |   |   |   |   |   |   |   |   |   |   inlinks >= 2706
|   |   |   |   |   |   |   |   |   |   |   |   inlinks < 3262.5 : 1 (4/0)
|   |   |   |   |   |   |   |   |   |   |   |   inlinks >= 3262.5 : 0 (3/0)
|   |   |   |   |   |   |   |   |   inlinks >= 4049 : 1 (7/0)
|   |   |   |   |   |   |   |   inlinks >= 4546.5
|   |   |   |   |   |   |   |   |   inlinks < 9823.5
|   |   |   |   |   |   |   |   |   |   inlinks < 9045.5
|   |   |   |   |   |   |   |   |   |   |   inlinks < 7382.5
|   |   |   |   |   |   |   |   |   |   |   |   inlinks < 6779.5
|   |   |   |   |   |   |   |   |   |   |   |   |   inlinks < 4904 : 0 (3/0)
|   |   |   |   |   |   |   |   |   |   |   |   |   inlinks >= 4904
|   |   |   |   |   |   |   |   |   |   |   |   |   |   inlinks < 5332.5 : 1 (1/0)
|   |   |   |   |   |   |   |   |   |   |   |   |   |   inlinks >= 5332.5
|   |   |   |   |   |   |   |   |   |   |   |   |   |   |   inlinks < 5994.5 : 0 (4/0)
|   |   |   |   |   |   |   |   |   |   |   |   |   |   |   inlinks >= 5994.5
|   |   |   |   |   |   |   |   |   |   |   |   |   |   |   |   inlinks < 6078.5 : 1 (1/0)
|   |   |   |   |   |   |   |   |   |   |   |   |   |   |   |   inlinks >= 6078.5 : 0 (3/0)
|   |   |   |   |   |   |   |   |   |   |   |   inlinks >= 6779.5 : 1 (1/0)
|   |   |   |   |   |   |   |   |   |   |   inlinks >= 7382.5 : 0 (7/0)
|   |   |   |   |   |   |   |   |   |   inlinks >= 9045.5 : 1 (2/0)
|   |   |   |   |   |   |   |   |   inlinks >= 9823.5 : 0 (6/0)
|   |   |   |   inlinks >= 13108 : 1 (13/0)
|   |   |   subMatches >= 0.5
|   |   |   |   inlinks < 1346
|   |   |   |   |   inlinks < 253 : 1 (1/0)
|   |   |   |   |   inlinks >= 253 : 0 (1/0)
|   |   |   |   inlinks >= 1346 : 1 (2/0)
|   |   abbrMatch >= 0.5
|   |   |   inlinks < 253 : 0 (14/0)
|   |   |   inlinks >= 253
|   |   |   |   inlinks < 226608
|   |   |   |   |   inlinks < 13043
|   |   |   |   |   |   inlinks < 3285.5
|   |   |   |   |   |   |   inlinks < 260.5 : 1 (1/0)
|   |   |   |   |   |   |   inlinks >= 260.5
|   |   |   |   |   |   |   |   inlinks < 374.5 : 0 (3/0)
|   |   |   |   |   |   |   |   inlinks >= 374.5
|   |   |   |   |   |   |   |   |   inlinks < 450.5 : 1 (1/0)
|   |   |   |   |   |   |   |   |   inlinks >= 450.5
|   |   |   |   |   |   |   |   |   |   inlinks < 978 : 0 (2/0)
|   |   |   |   |   |   |   |   |   |   inlinks >= 978
|   |   |   |   |   |   |   |   |   |   |   inlinks < 1156 : 1 (1/0)
|   |   |   |   |   |   |   |   |   |   |   inlinks >= 1156
|   |   |   |   |   |   |   |   |   |   |   |   inlinks < 1849 : 0 (3/0)
|   |   |   |   |   |   |   |   |   |   |   |   inlinks >= 1849
|   |   |   |   |   |   |   |   |   |   |   |   |   inlinks < 1973 : 1 (1/0)
|   |   |   |   |   |   |   |   |   |   |   |   |   inlinks >= 1973 : 0 (2/0)
|   |   |   |   |   |   inlinks >= 3285.5 : 1 (2/0)
|   |   |   |   |   inlinks >= 13043 : 0 (3/0)
|   |   |   |   inlinks >= 226608 : 1 (3/0)
subMatches >= 1.5
|   strMatches < 0.5 : 0 (8/0)
|   strMatches >= 0.5 : 1 (12/0)

Size of the tree : 187


RandomTree
==========

strMatches < 0.5
|   inlinks < 8.5 : 1 (1/0)
|   inlinks >= 8.5
|   |   subMatches < 1.5
|   |   |   inlinks < 413.5
|   |   |   |   inlinks < 405
|   |   |   |   |   inlinks < 135.5
|   |   |   |   |   |   inlinks < 127.5 : 0 (13/0)
|   |   |   |   |   |   inlinks >= 127.5 : 1 (1/0)
|   |   |   |   |   inlinks >= 135.5 : 0 (19/0)
|   |   |   |   inlinks >= 405 : 1 (1/0)
|   |   |   inlinks >= 413.5 : 0 (37/0)
|   |   subMatches >= 1.5 : 0 (8/0)
strMatches >= 0.5
|   subMatches < 0.5
|   |   inlinks < 2474.5
|   |   |   inlinks < 23.5
|   |   |   |   inlinks < 14
|   |   |   |   |   inlinks < 10.5
|   |   |   |   |   |   inlinks < 5.5
|   |   |   |   |   |   |   inlinks < 4.5
|   |   |   |   |   |   |   |   inlinks < 2.5
|   |   |   |   |   |   |   |   |   inlinks < 1.5 : 0 (3/1)
|   |   |   |   |   |   |   |   |   inlinks >= 1.5 : 1 (1/0)
|   |   |   |   |   |   |   |   inlinks >= 2.5
|   |   |   |   |   |   |   |   |   inlinks < 3.5 : 0 (1/0)
|   |   |   |   |   |   |   |   |   inlinks >= 3.5 : 0 (3/1)
|   |   |   |   |   |   |   inlinks >= 4.5 : 0 (5/0)
|   |   |   |   |   |   inlinks >= 5.5
|   |   |   |   |   |   |   inlinks < 8.5 : 1 (2/0)
|   |   |   |   |   |   |   inlinks >= 8.5
|   |   |   |   |   |   |   |   inlinks < 9.5 : 0 (1/0)
|   |   |   |   |   |   |   |   inlinks >= 9.5 : 1 (2/0)
|   |   |   |   |   inlinks >= 10.5 : 0 (3/0)
|   |   |   |   inlinks >= 14
|   |   |   |   |   inlinks < 18 : 1 (5/0)
|   |   |   |   |   inlinks >= 18
|   |   |   |   |   |   inlinks < 20.5 : 0 (1/0)
|   |   |   |   |   |   inlinks >= 20.5 : 1 (1/0)
|   |   |   inlinks >= 23.5
|   |   |   |   abbrMatch < 0.5
|   |   |   |   |   inlinks < 1289.5
|   |   |   |   |   |   inlinks < 916.5
|   |   |   |   |   |   |   inlinks < 911
|   |   |   |   |   |   |   |   inlinks < 699.5
|   |   |   |   |   |   |   |   |   inlinks < 698
|   |   |   |   |   |   |   |   |   |   inlinks < 207
|   |   |   |   |   |   |   |   |   |   |   inlinks < 122.5
|   |   |   |   |   |   |   |   |   |   |   |   inlinks < 120.5
|   |   |   |   |   |   |   |   |   |   |   |   |   inlinks < 94.5
|   |   |   |   |   |   |   |   |   |   |   |   |   |   inlinks < 87.5
|   |   |   |   |   |   |   |   |   |   |   |   |   |   |   inlinks < 72
|   |   |   |   |   |   |   |   |   |   |   |   |   |   |   |   inlinks < 70
|   |   |   |   |   |   |   |   |   |   |   |   |   |   |   |   |   inlinks < 59.5
|   |   |   |   |   |   |   |   |   |   |   |   |   |   |   |   |   |   inlinks < 58.5
|   |   |   |   |   |   |   |   |   |   |   |   |   |   |   |   |   |   |   inlinks < 40.5
|   |   |   |   |   |   |   |   |   |   |   |   |   |   |   |   |   |   |   |   inlinks < 31.5 : 0 (7/0)
|   |   |   |   |   |   |   |   |   |   |   |   |   |   |   |   |   |   |   |   inlinks >= 31.5
|   |   |   |   |   |   |   |   |   |   |   |   |   |   |   |   |   |   |   |   |   inlinks < 33.5 : 1 (1/0)
|   |   |   |   |   |   |   |   |   |   |   |   |   |   |   |   |   |   |   |   |   inlinks >= 33.5
|   |   |   |   |   |   |   |   |   |   |   |   |   |   |   |   |   |   |   |   |   |   inlinks < 36.5 : 0 (6/0)
|   |   |   |   |   |   |   |   |   |   |   |   |   |   |   |   |   |   |   |   |   |   inlinks >= 36.5
|   |   |   |   |   |   |   |   |   |   |   |   |   |   |   |   |   |   |   |   |   |   |   inlinks < 38.5 : 0 (2/1)
|   |   |   |   |   |   |   |   |   |   |   |   |   |   |   |   |   |   |   |   |   |   |   inlinks >= 38.5 : 0 (3/1)
|   |   |   |   |   |   |   |   |   |   |   |   |   |   |   |   |   |   |   inlinks >= 40.5 : 0 (23/0)
|   |   |   |   |   |   |   |   |   |   |   |   |   |   |   |   |   |   inlinks >= 58.5 : 1 (3/1)
|   |   |   |   |   |   |   |   |   |   |   |   |   |   |   |   |   inlinks >= 59.5 : 0 (8/0)
|   |   |   |   |   |   |   |   |   |   |   |   |   |   |   |   inlinks >= 70 : 1 (1/0)
|   |   |   |   |   |   |   |   |   |   |   |   |   |   |   inlinks >= 72 : 0 (11/0)
|   |   |   |   |   |   |   |   |   |   |   |   |   |   inlinks >= 87.5
|   |   |   |   |   |   |   |   |   |   |   |   |   |   |   inlinks < 91.5 : 0 (2/1)
|   |   |   |   |   |   |   |   |   |   |   |   |   |   |   inlinks >= 91.5
|   |   |   |   |   |   |   |   |   |   |   |   |   |   |   |   inlinks < 93 : 0 (1/0)
|   |   |   |   |   |   |   |   |   |   |   |   |   |   |   |   inlinks >= 93 : 0 (4/1)
|   |   |   |   |   |   |   |   |   |   |   |   |   inlinks >= 94.5 : 0 (23/0)
|   |   |   |   |   |   |   |   |   |   |   |   inlinks >= 120.5 : 1 (1/0)
|   |   |   |   |   |   |   |   |   |   |   inlinks >= 122.5 : 0 (25/0)
|   |   |   |   |   |   |   |   |   |   inlinks >= 207
|   |   |   |   |   |   |   |   |   |   |   inlinks < 233.5
|   |   |   |   |   |   |   |   |   |   |   |   inlinks < 222
|   |   |   |   |   |   |   |   |   |   |   |   |   inlinks < 210.5
|   |   |   |   |   |   |   |   |   |   |   |   |   |   inlinks < 209.5
|   |   |   |   |   |   |   |   |   |   |   |   |   |   |   inlinks < 208.5 : 1 (1/0)
|   |   |   |   |   |   |   |   |   |   |   |   |   |   |   inlinks >= 208.5 : 0 (1/0)
|   |   |   |   |   |   |   |   |   |   |   |   |   |   inlinks >= 209.5 : 1 (2/0)
|   |   |   |   |   |   |   |   |   |   |   |   |   inlinks >= 210.5
|   |   |   |   |   |   |   |   |   |   |   |   |   |   inlinks < 214.5 : 0 (3/0)
|   |   |   |   |   |   |   |   |   |   |   |   |   |   inlinks >= 214.5
|   |   |   |   |   |   |   |   |   |   |   |   |   |   |   inlinks < 215.5 : 0 (3/1)
|   |   |   |   |   |   |   |   |   |   |   |   |   |   |   inlinks >= 215.5 : 0 (2/0)
|   |   |   |   |   |   |   |   |   |   |   |   inlinks >= 222 : 1 (2/0)
|   |   |   |   |   |   |   |   |   |   |   inlinks >= 233.5
|   |   |   |   |   |   |   |   |   |   |   |   inlinks < 496
|   |   |   |   |   |   |   |   |   |   |   |   |   inlinks < 340
|   |   |   |   |   |   |   |   |   |   |   |   |   |   inlinks < 330 : 0 (18/0)
|   |   |   |   |   |   |   |   |   |   |   |   |   |   inlinks >= 330 : 1 (1/0)
|   |   |   |   |   |   |   |   |   |   |   |   |   inlinks >= 340 : 0 (21/0)
|   |   |   |   |   |   |   |   |   |   |   |   inlinks >= 496
|   |   |   |   |   |   |   |   |   |   |   |   |   inlinks < 503.5 : 1 (1/0)
|   |   |   |   |   |   |   |   |   |   |   |   |   inlinks >= 503.5
|   |   |   |   |   |   |   |   |   |   |   |   |   |   inlinks < 645 : 0 (10/0)
|   |   |   |   |   |   |   |   |   |   |   |   |   |   inlinks >= 645
|   |   |   |   |   |   |   |   |   |   |   |   |   |   |   inlinks < 662.5 : 1 (2/0)
|   |   |   |   |   |   |   |   |   |   |   |   |   |   |   inlinks >= 662.5 : 0 (7/0)
|   |   |   |   |   |   |   |   |   inlinks >= 698 : 1 (2/0)
|   |   |   |   |   |   |   |   inlinks >= 699.5 : 0 (15/0)
|   |   |   |   |   |   |   inlinks >= 911 : 1 (1/0)
|   |   |   |   |   |   inlinks >= 916.5 : 0 (15/0)
|   |   |   |   |   inlinks >= 1289.5
|   |   |   |   |   |   inlinks < 1316.5 : 1 (3/0)
|   |   |   |   |   |   inlinks >= 1316.5
|   |   |   |   |   |   |   inlinks < 1626 : 0 (8/0)
|   |   |   |   |   |   |   inlinks >= 1626
|   |   |   |   |   |   |   |   inlinks < 1689.5 : 1 (2/0)
|   |   |   |   |   |   |   |   inlinks >= 1689.5
|   |   |   |   |   |   |   |   |   inlinks < 2375
|   |   |   |   |   |   |   |   |   |   inlinks < 2300.5
|   |   |   |   |   |   |   |   |   |   |   inlinks < 1741.5 : 0 (2/0)
|   |   |   |   |   |   |   |   |   |   |   inlinks >= 1741.5
|   |   |   |   |   |   |   |   |   |   |   |   inlinks < 1830 : 1 (1/0)
|   |   |   |   |   |   |   |   |   |   |   |   inlinks >= 1830
|   |   |   |   |   |   |   |   |   |   |   |   |   inlinks < 2115.5 : 0 (3/0)
|   |   |   |   |   |   |   |   |   |   |   |   |   inlinks >= 2115.5
|   |   |   |   |   |   |   |   |   |   |   |   |   |   inlinks < 2165.5 : 1 (1/0)
|   |   |   |   |   |   |   |   |   |   |   |   |   |   inlinks >= 2165.5 : 0 (2/0)
|   |   |   |   |   |   |   |   |   |   inlinks >= 2300.5 : 1 (1/0)
|   |   |   |   |   |   |   |   |   inlinks >= 2375 : 0 (6/0)
|   |   |   |   abbrMatch >= 0.5
|   |   |   |   |   inlinks < 253 : 0 (14/0)
|   |   |   |   |   inlinks >= 253
|   |   |   |   |   |   inlinks < 260.5 : 1 (1/0)
|   |   |   |   |   |   inlinks >= 260.5
|   |   |   |   |   |   |   inlinks < 374.5 : 0 (3/0)
|   |   |   |   |   |   |   inlinks >= 374.5
|   |   |   |   |   |   |   |   inlinks < 450.5 : 1 (1/0)
|   |   |   |   |   |   |   |   inlinks >= 450.5
|   |   |   |   |   |   |   |   |   inlinks < 978 : 0 (2/0)
|   |   |   |   |   |   |   |   |   inlinks >= 978
|   |   |   |   |   |   |   |   |   |   inlinks < 1156 : 1 (1/0)
|   |   |   |   |   |   |   |   |   |   inlinks >= 1156
|   |   |   |   |   |   |   |   |   |   |   inlinks < 1849 : 0 (3/0)
|   |   |   |   |   |   |   |   |   |   |   inlinks >= 1849
|   |   |   |   |   |   |   |   |   |   |   |   inlinks < 1973 : 1 (1/0)
|   |   |   |   |   |   |   |   |   |   |   |   inlinks >= 1973 : 0 (1/0)
|   |   inlinks >= 2474.5
|   |   |   inlinks < 23020
|   |   |   |   inlinks < 4624.5
|   |   |   |   |   inlinks < 4049
|   |   |   |   |   |   inlinks < 3696.5
|   |   |   |   |   |   |   inlinks < 3008
|   |   |   |   |   |   |   |   inlinks < 2496 : 1 (1/0)
|   |   |   |   |   |   |   |   inlinks >= 2496
|   |   |   |   |   |   |   |   |   inlinks < 2706 : 0 (2/0)
|   |   |   |   |   |   |   |   |   inlinks >= 2706
|   |   |   |   |   |   |   |   |   |   abbrMatch < 0.5 : 1 (1/0)
|   |   |   |   |   |   |   |   |   |   abbrMatch >= 0.5 : 0 (1/0)
|   |   |   |   |   |   |   inlinks >= 3008
|   |   |   |   |   |   |   |   inlinks < 3262.5 : 1 (3/0)
|   |   |   |   |   |   |   |   inlinks >= 3262.5
|   |   |   |   |   |   |   |   |   inlinks < 3540 : 0 (1/0)
|   |   |   |   |   |   |   |   |   inlinks >= 3540 : 1 (1/0)
|   |   |   |   |   |   inlinks >= 3696.5 : 0 (2/0)
|   |   |   |   |   inlinks >= 4049 : 1 (8/0)
|   |   |   |   inlinks >= 4624.5
|   |   |   |   |   abbrMatch < 0.5
|   |   |   |   |   |   inlinks < 13108
|   |   |   |   |   |   |   inlinks < 9823.5
|   |   |   |   |   |   |   |   inlinks < 9045.5
|   |   |   |   |   |   |   |   |   inlinks < 7382.5
|   |   |   |   |   |   |   |   |   |   inlinks < 6779.5
|   |   |   |   |   |   |   |   |   |   |   inlinks < 4904 : 0 (3/0)
|   |   |   |   |   |   |   |   |   |   |   inlinks >= 4904
|   |   |   |   |   |   |   |   |   |   |   |   inlinks < 5332.5 : 1 (1/0)
|   |   |   |   |   |   |   |   |   |   |   |   inlinks >= 5332.5
|   |   |   |   |   |   |   |   |   |   |   |   |   inlinks < 5994.5 : 0 (4/0)
|   |   |   |   |   |   |   |   |   |   |   |   |   inlinks >= 5994.5
|   |   |   |   |   |   |   |   |   |   |   |   |   |   inlinks < 6078.5 : 1 (1/0)
|   |   |   |   |   |   |   |   |   |   |   |   |   |   inlinks >= 6078.5 : 0 (3/0)
|   |   |   |   |   |   |   |   |   |   inlinks >= 6779.5 : 1 (1/0)
|   |   |   |   |   |   |   |   |   inlinks >= 7382.5 : 0 (7/0)
|   |   |   |   |   |   |   |   inlinks >= 9045.5 : 1 (2/0)
|   |   |   |   |   |   |   inlinks >= 9823.5 : 0 (6/0)
|   |   |   |   |   |   inlinks >= 13108 : 1 (5/0)
|   |   |   |   |   abbrMatch >= 0.5 : 0 (3/0)
|   |   |   inlinks >= 23020 : 1 (11/0)
|   subMatches >= 0.5
|   |   inlinks < 326
|   |   |   subMatches < 1.5
|   |   |   |   inlinks < 253 : 1 (1/0)
|   |   |   |   inlinks >= 253 : 0 (1/0)
|   |   |   subMatches >= 1.5 : 1 (5/0)
|   |   inlinks >= 326 : 1 (9/0)

Size of the tree : 193


RandomTree
==========

abbrMatch < 0.5
|   strMatches < 0.5
|   |   subMatches < 1.5
|   |   |   inlinks < 8.5 : 1 (1/0)
|   |   |   inlinks >= 8.5
|   |   |   |   inlinks < 413.5
|   |   |   |   |   inlinks < 405
|   |   |   |   |   |   inlinks < 135.5
|   |   |   |   |   |   |   inlinks < 127.5 : 0 (13/0)
|   |   |   |   |   |   |   inlinks >= 127.5 : 1 (1/0)
|   |   |   |   |   |   inlinks >= 135.5 : 0 (19/0)
|   |   |   |   |   inlinks >= 405 : 1 (1/0)
|   |   |   |   inlinks >= 413.5 : 0 (37/0)
|   |   subMatches >= 1.5 : 0 (8/0)
|   strMatches >= 0.5
|   |   inlinks < 13108
|   |   |   subMatches < 0.5
|   |   |   |   inlinks < 1289.5
|   |   |   |   |   inlinks < 23.5
|   |   |   |   |   |   inlinks < 14
|   |   |   |   |   |   |   inlinks < 10.5
|   |   |   |   |   |   |   |   inlinks < 5.5
|   |   |   |   |   |   |   |   |   inlinks < 4.5
|   |   |   |   |   |   |   |   |   |   inlinks < 2.5
|   |   |   |   |   |   |   |   |   |   |   inlinks < 1.5 : 0 (3/1)
|   |   |   |   |   |   |   |   |   |   |   inlinks >= 1.5 : 1 (1/0)
|   |   |   |   |   |   |   |   |   |   inlinks >= 2.5
|   |   |   |   |   |   |   |   |   |   |   inlinks < 3.5 : 0 (1/0)
|   |   |   |   |   |   |   |   |   |   |   inlinks >= 3.5 : 0 (3/1)
|   |   |   |   |   |   |   |   |   inlinks >= 4.5 : 0 (5/0)
|   |   |   |   |   |   |   |   inlinks >= 5.5
|   |   |   |   |   |   |   |   |   inlinks < 8.5 : 1 (2/0)
|   |   |   |   |   |   |   |   |   inlinks >= 8.5
|   |   |   |   |   |   |   |   |   |   inlinks < 9.5 : 0 (1/0)
|   |   |   |   |   |   |   |   |   |   inlinks >= 9.5 : 1 (2/0)
|   |   |   |   |   |   |   inlinks >= 10.5 : 0 (3/0)
|   |   |   |   |   |   inlinks >= 14
|   |   |   |   |   |   |   inlinks < 18 : 1 (5/0)
|   |   |   |   |   |   |   inlinks >= 18
|   |   |   |   |   |   |   |   inlinks < 20.5 : 0 (1/0)
|   |   |   |   |   |   |   |   inlinks >= 20.5 : 1 (1/0)
|   |   |   |   |   inlinks >= 23.5
|   |   |   |   |   |   inlinks < 916.5
|   |   |   |   |   |   |   inlinks < 911
|   |   |   |   |   |   |   |   inlinks < 699.5
|   |   |   |   |   |   |   |   |   inlinks < 698
|   |   |   |   |   |   |   |   |   |   inlinks < 207
|   |   |   |   |   |   |   |   |   |   |   inlinks < 122.5
|   |   |   |   |   |   |   |   |   |   |   |   inlinks < 120.5
|   |   |   |   |   |   |   |   |   |   |   |   |   inlinks < 94.5
|   |   |   |   |   |   |   |   |   |   |   |   |   |   inlinks < 87.5
|   |   |   |   |   |   |   |   |   |   |   |   |   |   |   inlinks < 72
|   |   |   |   |   |   |   |   |   |   |   |   |   |   |   |   inlinks < 70
|   |   |   |   |   |   |   |   |   |   |   |   |   |   |   |   |   inlinks < 59.5
|   |   |   |   |   |   |   |   |   |   |   |   |   |   |   |   |   |   inlinks < 58.5
|   |   |   |   |   |   |   |   |   |   |   |   |   |   |   |   |   |   |   inlinks < 40.5
|   |   |   |   |   |   |   |   |   |   |   |   |   |   |   |   |   |   |   |   inlinks < 31.5 : 0 (7/0)
|   |   |   |   |   |   |   |   |   |   |   |   |   |   |   |   |   |   |   |   inlinks >= 31.5
|   |   |   |   |   |   |   |   |   |   |   |   |   |   |   |   |   |   |   |   |   inlinks < 33.5 : 1 (1/0)
|   |   |   |   |   |   |   |   |   |   |   |   |   |   |   |   |   |   |   |   |   inlinks >= 33.5
|   |   |   |   |   |   |   |   |   |   |   |   |   |   |   |   |   |   |   |   |   |   inlinks < 36.5 : 0 (6/0)
|   |   |   |   |   |   |   |   |   |   |   |   |   |   |   |   |   |   |   |   |   |   inlinks >= 36.5
|   |   |   |   |   |   |   |   |   |   |   |   |   |   |   |   |   |   |   |   |   |   |   inlinks < 38.5 : 0 (2/1)
|   |   |   |   |   |   |   |   |   |   |   |   |   |   |   |   |   |   |   |   |   |   |   inlinks >= 38.5 : 0 (3/1)
|   |   |   |   |   |   |   |   |   |   |   |   |   |   |   |   |   |   |   inlinks >= 40.5 : 0 (23/0)
|   |   |   |   |   |   |   |   |   |   |   |   |   |   |   |   |   |   inlinks >= 58.5 : 1 (3/1)
|   |   |   |   |   |   |   |   |   |   |   |   |   |   |   |   |   inlinks >= 59.5 : 0 (8/0)
|   |   |   |   |   |   |   |   |   |   |   |   |   |   |   |   inlinks >= 70 : 1 (1/0)
|   |   |   |   |   |   |   |   |   |   |   |   |   |   |   inlinks >= 72 : 0 (11/0)
|   |   |   |   |   |   |   |   |   |   |   |   |   |   inlinks >= 87.5
|   |   |   |   |   |   |   |   |   |   |   |   |   |   |   inlinks < 91.5 : 0 (2/1)
|   |   |   |   |   |   |   |   |   |   |   |   |   |   |   inlinks >= 91.5
|   |   |   |   |   |   |   |   |   |   |   |   |   |   |   |   inlinks < 93 : 0 (1/0)
|   |   |   |   |   |   |   |   |   |   |   |   |   |   |   |   inlinks >= 93 : 0 (4/1)
|   |   |   |   |   |   |   |   |   |   |   |   |   inlinks >= 94.5 : 0 (23/0)
|   |   |   |   |   |   |   |   |   |   |   |   inlinks >= 120.5 : 1 (1/0)
|   |   |   |   |   |   |   |   |   |   |   inlinks >= 122.5 : 0 (25/0)
|   |   |   |   |   |   |   |   |   |   inlinks >= 207
|   |   |   |   |   |   |   |   |   |   |   inlinks < 233.5
|   |   |   |   |   |   |   |   |   |   |   |   inlinks < 222
|   |   |   |   |   |   |   |   |   |   |   |   |   inlinks < 210.5
|   |   |   |   |   |   |   |   |   |   |   |   |   |   inlinks < 209.5
|   |   |   |   |   |   |   |   |   |   |   |   |   |   |   inlinks < 208.5 : 1 (1/0)
|   |   |   |   |   |   |   |   |   |   |   |   |   |   |   inlinks >= 208.5 : 0 (1/0)
|   |   |   |   |   |   |   |   |   |   |   |   |   |   inlinks >= 209.5 : 1 (2/0)
|   |   |   |   |   |   |   |   |   |   |   |   |   inlinks >= 210.5
|   |   |   |   |   |   |   |   |   |   |   |   |   |   inlinks < 214.5 : 0 (3/0)
|   |   |   |   |   |   |   |   |   |   |   |   |   |   inlinks >= 214.5
|   |   |   |   |   |   |   |   |   |   |   |   |   |   |   inlinks < 215.5 : 0 (3/1)
|   |   |   |   |   |   |   |   |   |   |   |   |   |   |   inlinks >= 215.5 : 0 (2/0)
|   |   |   |   |   |   |   |   |   |   |   |   inlinks >= 222 : 1 (2/0)
|   |   |   |   |   |   |   |   |   |   |   inlinks >= 233.5
|   |   |   |   |   |   |   |   |   |   |   |   inlinks < 496
|   |   |   |   |   |   |   |   |   |   |   |   |   inlinks < 340
|   |   |   |   |   |   |   |   |   |   |   |   |   |   inlinks < 330 : 0 (18/0)
|   |   |   |   |   |   |   |   |   |   |   |   |   |   inlinks >= 330 : 1 (1/0)
|   |   |   |   |   |   |   |   |   |   |   |   |   inlinks >= 340 : 0 (21/0)
|   |   |   |   |   |   |   |   |   |   |   |   inlinks >= 496
|   |   |   |   |   |   |   |   |   |   |   |   |   inlinks < 503.5 : 1 (1/0)
|   |   |   |   |   |   |   |   |   |   |   |   |   inlinks >= 503.5
|   |   |   |   |   |   |   |   |   |   |   |   |   |   inlinks < 645 : 0 (10/0)
|   |   |   |   |   |   |   |   |   |   |   |   |   |   inlinks >= 645
|   |   |   |   |   |   |   |   |   |   |   |   |   |   |   inlinks < 662.5 : 1 (2/0)
|   |   |   |   |   |   |   |   |   |   |   |   |   |   |   inlinks >= 662.5 : 0 (7/0)
|   |   |   |   |   |   |   |   |   inlinks >= 698 : 1 (2/0)
|   |   |   |   |   |   |   |   inlinks >= 699.5 : 0 (15/0)
|   |   |   |   |   |   |   inlinks >= 911 : 1 (1/0)
|   |   |   |   |   |   inlinks >= 916.5 : 0 (15/0)
|   |   |   |   inlinks >= 1289.5
|   |   |   |   |   inlinks < 1316.5 : 1 (3/0)
|   |   |   |   |   inlinks >= 1316.5
|   |   |   |   |   |   inlinks < 1626 : 0 (8/0)
|   |   |   |   |   |   inlinks >= 1626
|   |   |   |   |   |   |   inlinks < 4546.5
|   |   |   |   |   |   |   |   inlinks < 4049
|   |   |   |   |   |   |   |   |   inlinks < 1689.5 : 1 (2/0)
|   |   |   |   |   |   |   |   |   inlinks >= 1689.5
|   |   |   |   |   |   |   |   |   |   inlinks < 2706
|   |   |   |   |   |   |   |   |   |   |   inlinks < 2375
|   |   |   |   |   |   |   |   |   |   |   |   inlinks < 2300.5
|   |   |   |   |   |   |   |   |   |   |   |   |   inlinks < 1741.5 : 0 (2/0)
|   |   |   |   |   |   |   |   |   |   |   |   |   inlinks >= 1741.5
|   |   |   |   |   |   |   |   |   |   |   |   |   |   inlinks < 1830 : 1 (1/0)
|   |   |   |   |   |   |   |   |   |   |   |   |   |   inlinks >= 1830
|   |   |   |   |   |   |   |   |   |   |   |   |   |   |   inlinks < 2115.5 : 0 (3/0)
|   |   |   |   |   |   |   |   |   |   |   |   |   |   |   inlinks >= 2115.5
|   |   |   |   |   |   |   |   |   |   |   |   |   |   |   |   inlinks < 2165.5 : 1 (1/0)
|   |   |   |   |   |   |   |   |   |   |   |   |   |   |   |   inlinks >= 2165.5 : 0 (2/0)
|   |   |   |   |   |   |   |   |   |   |   |   inlinks >= 2300.5 : 1 (1/0)
|   |   |   |   |   |   |   |   |   |   |   inlinks >= 2375
|   |   |   |   |   |   |   |   |   |   |   |   inlinks < 2474.5 : 0 (6/0)
|   |   |   |   |   |   |   |   |   |   |   |   inlinks >= 2474.5
|   |   |   |   |   |   |   |   |   |   |   |   |   inlinks < 2496 : 1 (1/0)
|   |   |   |   |   |   |   |   |   |   |   |   |   inlinks >= 2496 : 0 (2/0)
|   |   |   |   |   |   |   |   |   |   inlinks >= 2706
|   |   |   |   |   |   |   |   |   |   |   inlinks < 3262.5 : 1 (4/0)
|   |   |   |   |   |   |   |   |   |   |   inlinks >= 3262.5 : 0 (3/0)
|   |   |   |   |   |   |   |   inlinks >= 4049 : 1 (7/0)
|   |   |   |   |   |   |   inlinks >= 4546.5
|   |   |   |   |   |   |   |   inlinks < 9823.5
|   |   |   |   |   |   |   |   |   inlinks < 9045.5
|   |   |   |   |   |   |   |   |   |   inlinks < 7382.5
|   |   |   |   |   |   |   |   |   |   |   inlinks < 6779.5
|   |   |   |   |   |   |   |   |   |   |   |   inlinks < 4904 : 0 (3/0)
|   |   |   |   |   |   |   |   |   |   |   |   inlinks >= 4904
|   |   |   |   |   |   |   |   |   |   |   |   |   inlinks < 5332.5 : 1 (1/0)
|   |   |   |   |   |   |   |   |   |   |   |   |   inlinks >= 5332.5
|   |   |   |   |   |   |   |   |   |   |   |   |   |   inlinks < 5994.5 : 0 (4/0)
|   |   |   |   |   |   |   |   |   |   |   |   |   |   inlinks >= 5994.5
|   |   |   |   |   |   |   |   |   |   |   |   |   |   |   inlinks < 6078.5 : 1 (1/0)
|   |   |   |   |   |   |   |   |   |   |   |   |   |   |   inlinks >= 6078.5 : 0 (3/0)
|   |   |   |   |   |   |   |   |   |   |   inlinks >= 6779.5 : 1 (1/0)
|   |   |   |   |   |   |   |   |   |   inlinks >= 7382.5 : 0 (7/0)
|   |   |   |   |   |   |   |   |   inlinks >= 9045.5 : 1 (2/0)
|   |   |   |   |   |   |   |   inlinks >= 9823.5 : 0 (6/0)
|   |   |   subMatches >= 0.5
|   |   |   |   subMatches < 1.5
|   |   |   |   |   inlinks < 253 : 1 (1/0)
|   |   |   |   |   inlinks >= 253
|   |   |   |   |   |   inlinks < 1346 : 0 (1/0)
|   |   |   |   |   |   inlinks >= 1346 : 1 (1/0)
|   |   |   |   subMatches >= 1.5 : 1 (9/0)
|   |   inlinks >= 13108 : 1 (17/0)
abbrMatch >= 0.5
|   inlinks < 253 : 0 (14/0)
|   inlinks >= 253
|   |   inlinks < 226608
|   |   |   inlinks < 13043
|   |   |   |   inlinks < 3285.5
|   |   |   |   |   inlinks < 260.5 : 1 (1/0)
|   |   |   |   |   inlinks >= 260.5
|   |   |   |   |   |   inlinks < 374.5 : 0 (3/0)
|   |   |   |   |   |   inlinks >= 374.5
|   |   |   |   |   |   |   inlinks < 450.5 : 1 (1/0)
|   |   |   |   |   |   |   inlinks >= 450.5
|   |   |   |   |   |   |   |   inlinks < 978 : 0 (2/0)
|   |   |   |   |   |   |   |   inlinks >= 978
|   |   |   |   |   |   |   |   |   inlinks < 1156 : 1 (1/0)
|   |   |   |   |   |   |   |   |   inlinks >= 1156
|   |   |   |   |   |   |   |   |   |   inlinks < 1849 : 0 (3/0)
|   |   |   |   |   |   |   |   |   |   inlinks >= 1849
|   |   |   |   |   |   |   |   |   |   |   inlinks < 1973 : 1 (1/0)
|   |   |   |   |   |   |   |   |   |   |   inlinks >= 1973 : 0 (2/0)
|   |   |   |   inlinks >= 3285.5 : 1 (2/0)
|   |   |   inlinks >= 13043 : 0 (3/0)
|   |   inlinks >= 226608 : 1 (3/0)

Size of the tree : 187


RandomTree
==========

subMatches < 1.5
|   inlinks < 3035.5
|   |   inlinks < 18
|   |   |   inlinks < 16.5
|   |   |   |   inlinks < 10.5
|   |   |   |   |   inlinks < 5.5
|   |   |   |   |   |   subMatches < 0.5
|   |   |   |   |   |   |   inlinks < 4.5
|   |   |   |   |   |   |   |   inlinks < 2.5
|   |   |   |   |   |   |   |   |   inlinks < 1.5 : 0 (3/1)
|   |   |   |   |   |   |   |   |   inlinks >= 1.5 : 1 (1/0)
|   |   |   |   |   |   |   |   inlinks >= 2.5
|   |   |   |   |   |   |   |   |   inlinks < 3.5 : 0 (1/0)
|   |   |   |   |   |   |   |   |   inlinks >= 3.5 : 0 (3/1)
|   |   |   |   |   |   |   inlinks >= 4.5 : 0 (5/0)
|   |   |   |   |   |   subMatches >= 0.5 : 1 (1/0)
|   |   |   |   |   inlinks >= 5.5
|   |   |   |   |   |   inlinks < 8.5 : 1 (2/0)
|   |   |   |   |   |   inlinks >= 8.5
|   |   |   |   |   |   |   inlinks < 9.5 : 0 (1/0)
|   |   |   |   |   |   |   inlinks >= 9.5 : 1 (2/0)
|   |   |   |   inlinks >= 10.5 : 0 (4/0)
|   |   |   inlinks >= 16.5 : 1 (5/0)
|   |   inlinks >= 18
|   |   |   abbrMatch < 0.5
|   |   |   |   inlinks < 1289.5
|   |   |   |   |   inlinks < 916.5
|   |   |   |   |   |   subMatches < 0.5
|   |   |   |   |   |   |   inlinks < 911
|   |   |   |   |   |   |   |   inlinks < 699.5
|   |   |   |   |   |   |   |   |   inlinks < 698
|   |   |   |   |   |   |   |   |   |   inlinks < 23.5
|   |   |   |   |   |   |   |   |   |   |   inlinks < 20.5 : 0 (1/0)
|   |   |   |   |   |   |   |   |   |   |   inlinks >= 20.5 : 1 (1/0)
|   |   |   |   |   |   |   |   |   |   inlinks >= 23.5
|   |   |   |   |   |   |   |   |   |   |   inlinks < 207
|   |   |   |   |   |   |   |   |   |   |   |   inlinks < 122.5
|   |   |   |   |   |   |   |   |   |   |   |   |   inlinks < 120.5
|   |   |   |   |   |   |   |   |   |   |   |   |   |   inlinks < 94.5
|   |   |   |   |   |   |   |   |   |   |   |   |   |   |   inlinks < 87.5
|   |   |   |   |   |   |   |   |   |   |   |   |   |   |   |   inlinks < 72
|   |   |   |   |   |   |   |   |   |   |   |   |   |   |   |   |   inlinks < 70
|   |   |   |   |   |   |   |   |   |   |   |   |   |   |   |   |   |   inlinks < 59.5
|   |   |   |   |   |   |   |   |   |   |   |   |   |   |   |   |   |   |   inlinks < 58.5
|   |   |   |   |   |   |   |   |   |   |   |   |   |   |   |   |   |   |   |   inlinks < 40.5
|   |   |   |   |   |   |   |   |   |   |   |   |   |   |   |   |   |   |   |   |   inlinks < 31.5 : 0 (7/0)
|   |   |   |   |   |   |   |   |   |   |   |   |   |   |   |   |   |   |   |   |   inlinks >= 31.5
|   |   |   |   |   |   |   |   |   |   |   |   |   |   |   |   |   |   |   |   |   |   inlinks < 33.5 : 1 (1/0)
|   |   |   |   |   |   |   |   |   |   |   |   |   |   |   |   |   |   |   |   |   |   inlinks >= 33.5
|   |   |   |   |   |   |   |   |   |   |   |   |   |   |   |   |   |   |   |   |   |   |   inlinks < 36.5 : 0 (6/0)
|   |   |   |   |   |   |   |   |   |   |   |   |   |   |   |   |   |   |   |   |   |   |   inlinks >= 36.5
|   |   |   |   |   |   |   |   |   |   |   |   |   |   |   |   |   |   |   |   |   |   |   |   inlinks < 38.5 : 0 (2/1)
|   |   |   |   |   |   |   |   |   |   |   |   |   |   |   |   |   |   |   |   |   |   |   |   inlinks >= 38.5 : 0 (3/1)
|   |   |   |   |   |   |   |   |   |   |   |   |   |   |   |   |   |   |   |   inlinks >= 40.5 : 0 (23/0)
|   |   |   |   |   |   |   |   |   |   |   |   |   |   |   |   |   |   |   inlinks >= 58.5 : 1 (3/1)
|   |   |   |   |   |   |   |   |   |   |   |   |   |   |   |   |   |   inlinks >= 59.5 : 0 (8/0)
|   |   |   |   |   |   |   |   |   |   |   |   |   |   |   |   |   inlinks >= 70 : 1 (1/0)
|   |   |   |   |   |   |   |   |   |   |   |   |   |   |   |   inlinks >= 72 : 0 (11/0)
|   |   |   |   |   |   |   |   |   |   |   |   |   |   |   inlinks >= 87.5
|   |   |   |   |   |   |   |   |   |   |   |   |   |   |   |   inlinks < 91.5 : 0 (2/1)
|   |   |   |   |   |   |   |   |   |   |   |   |   |   |   |   inlinks >= 91.5
|   |   |   |   |   |   |   |   |   |   |   |   |   |   |   |   |   inlinks < 93 : 0 (1/0)
|   |   |   |   |   |   |   |   |   |   |   |   |   |   |   |   |   inlinks >= 93 : 0 (4/1)
|   |   |   |   |   |   |   |   |   |   |   |   |   |   inlinks >= 94.5 : 0 (23/0)
|   |   |   |   |   |   |   |   |   |   |   |   |   inlinks >= 120.5 : 1 (1/0)
|   |   |   |   |   |   |   |   |   |   |   |   inlinks >= 122.5 : 0 (25/0)
|   |   |   |   |   |   |   |   |   |   |   inlinks >= 207
|   |   |   |   |   |   |   |   |   |   |   |   inlinks < 233.5
|   |   |   |   |   |   |   |   |   |   |   |   |   inlinks < 222
|   |   |   |   |   |   |   |   |   |   |   |   |   |   inlinks < 210.5
|   |   |   |   |   |   |   |   |   |   |   |   |   |   |   inlinks < 209.5
|   |   |   |   |   |   |   |   |   |   |   |   |   |   |   |   inlinks < 208.5 : 1 (1/0)
|   |   |   |   |   |   |   |   |   |   |   |   |   |   |   |   inlinks >= 208.5 : 0 (1/0)
|   |   |   |   |   |   |   |   |   |   |   |   |   |   |   inlinks >= 209.5 : 1 (2/0)
|   |   |   |   |   |   |   |   |   |   |   |   |   |   inlinks >= 210.5
|   |   |   |   |   |   |   |   |   |   |   |   |   |   |   inlinks < 214.5 : 0 (3/0)
|   |   |   |   |   |   |   |   |   |   |   |   |   |   |   inlinks >= 214.5
|   |   |   |   |   |   |   |   |   |   |   |   |   |   |   |   inlinks < 215.5 : 0 (3/1)
|   |   |   |   |   |   |   |   |   |   |   |   |   |   |   |   inlinks >= 215.5 : 0 (2/0)
|   |   |   |   |   |   |   |   |   |   |   |   |   inlinks >= 222 : 1 (2/0)
|   |   |   |   |   |   |   |   |   |   |   |   inlinks >= 233.5
|   |   |   |   |   |   |   |   |   |   |   |   |   inlinks < 496
|   |   |   |   |   |   |   |   |   |   |   |   |   |   inlinks < 340
|   |   |   |   |   |   |   |   |   |   |   |   |   |   |   inlinks < 330 : 0 (18/0)
|   |   |   |   |   |   |   |   |   |   |   |   |   |   |   inlinks >= 330 : 1 (1/0)
|   |   |   |   |   |   |   |   |   |   |   |   |   |   inlinks >= 340 : 0 (21/0)
|   |   |   |   |   |   |   |   |   |   |   |   |   inlinks >= 496
|   |   |   |   |   |   |   |   |   |   |   |   |   |   inlinks < 503.5 : 1 (1/0)
|   |   |   |   |   |   |   |   |   |   |   |   |   |   inlinks >= 503.5
|   |   |   |   |   |   |   |   |   |   |   |   |   |   |   inlinks < 645 : 0 (10/0)
|   |   |   |   |   |   |   |   |   |   |   |   |   |   |   inlinks >= 645
|   |   |   |   |   |   |   |   |   |   |   |   |   |   |   |   inlinks < 662.5 : 1 (2/0)
|   |   |   |   |   |   |   |   |   |   |   |   |   |   |   |   inlinks >= 662.5 : 0 (7/0)
|   |   |   |   |   |   |   |   |   inlinks >= 698 : 1 (2/0)
|   |   |   |   |   |   |   |   inlinks >= 699.5 : 0 (15/0)
|   |   |   |   |   |   |   inlinks >= 911 : 1 (1/0)
|   |   |   |   |   |   subMatches >= 0.5
|   |   |   |   |   |   |   inlinks < 127.5 : 0 (12/0)
|   |   |   |   |   |   |   inlinks >= 127.5
|   |   |   |   |   |   |   |   strMatches < 0.5
|   |   |   |   |   |   |   |   |   inlinks < 135.5 : 1 (1/0)
|   |   |   |   |   |   |   |   |   inlinks >= 135.5
|   |   |   |   |   |   |   |   |   |   inlinks < 405 : 0 (19/0)
|   |   |   |   |   |   |   |   |   |   inlinks >= 405
|   |   |   |   |   |   |   |   |   |   |   inlinks < 413.5 : 1 (1/0)
|   |   |   |   |   |   |   |   |   |   |   inlinks >= 413.5 : 0 (12/0)
|   |   |   |   |   |   |   |   strMatches >= 0.5
|   |   |   |   |   |   |   |   |   inlinks < 253 : 1 (1/0)
|   |   |   |   |   |   |   |   |   inlinks >= 253 : 0 (1/0)
|   |   |   |   |   inlinks >= 916.5 : 0 (15/0)
|   |   |   |   inlinks >= 1289.5
|   |   |   |   |   strMatches < 0.5 : 0 (11/0)
|   |   |   |   |   strMatches >= 0.5
|   |   |   |   |   |   inlinks < 1316.5 : 1 (3/0)
|   |   |   |   |   |   inlinks >= 1316.5
|   |   |   |   |   |   |   inlinks < 1626 : 0 (8/0)
|   |   |   |   |   |   |   inlinks >= 1626
|   |   |   |   |   |   |   |   subMatches < 0.5
|   |   |   |   |   |   |   |   |   inlinks < 1689.5 : 1 (2/0)
|   |   |   |   |   |   |   |   |   inlinks >= 1689.5
|   |   |   |   |   |   |   |   |   |   inlinks < 2706
|   |   |   |   |   |   |   |   |   |   |   inlinks < 2375
|   |   |   |   |   |   |   |   |   |   |   |   inlinks < 2300.5
|   |   |   |   |   |   |   |   |   |   |   |   |   inlinks < 1741.5 : 0 (2/0)
|   |   |   |   |   |   |   |   |   |   |   |   |   inlinks >= 1741.5
|   |   |   |   |   |   |   |   |   |   |   |   |   |   inlinks < 1830 : 1 (1/0)
|   |   |   |   |   |   |   |   |   |   |   |   |   |   inlinks >= 1830
|   |   |   |   |   |   |   |   |   |   |   |   |   |   |   inlinks < 2115.5 : 0 (3/0)
|   |   |   |   |   |   |   |   |   |   |   |   |   |   |   inlinks >= 2115.5
|   |   |   |   |   |   |   |   |   |   |   |   |   |   |   |   inlinks < 2165.5 : 1 (1/0)
|   |   |   |   |   |   |   |   |   |   |   |   |   |   |   |   inlinks >= 2165.5 : 0 (2/0)
|   |   |   |   |   |   |   |   |   |   |   |   inlinks >= 2300.5 : 1 (1/0)
|   |   |   |   |   |   |   |   |   |   |   inlinks >= 2375
|   |   |   |   |   |   |   |   |   |   |   |   inlinks < 2474.5 : 0 (6/0)
|   |   |   |   |   |   |   |   |   |   |   |   inlinks >= 2474.5
|   |   |   |   |   |   |   |   |   |   |   |   |   inlinks < 2496 : 1 (1/0)
|   |   |   |   |   |   |   |   |   |   |   |   |   inlinks >= 2496 : 0 (2/0)
|   |   |   |   |   |   |   |   |   |   inlinks >= 2706 : 1 (1/0)
|   |   |   |   |   |   |   |   subMatches >= 0.5 : 1 (1/0)
|   |   |   abbrMatch >= 0.5
|   |   |   |   inlinks < 253 : 0 (14/0)
|   |   |   |   inlinks >= 253
|   |   |   |   |   inlinks < 260.5 : 1 (1/0)
|   |   |   |   |   inlinks >= 260.5
|   |   |   |   |   |   inlinks < 374.5 : 0 (3/0)
|   |   |   |   |   |   inlinks >= 374.5
|   |   |   |   |   |   |   inlinks < 450.5 : 1 (1/0)
|   |   |   |   |   |   |   inlinks >= 450.5
|   |   |   |   |   |   |   |   inlinks < 978 : 0 (2/0)
|   |   |   |   |   |   |   |   inlinks >= 978
|   |   |   |   |   |   |   |   |   inlinks < 1156 : 1 (1/0)
|   |   |   |   |   |   |   |   |   inlinks >= 1156
|   |   |   |   |   |   |   |   |   |   inlinks < 1849 : 0 (3/0)
|   |   |   |   |   |   |   |   |   |   inlinks >= 1849
|   |   |   |   |   |   |   |   |   |   |   inlinks < 1973 : 1 (1/0)
|   |   |   |   |   |   |   |   |   |   |   inlinks >= 1973 : 0 (2/0)
|   inlinks >= 3035.5
|   |   abbrMatch < 0.5
|   |   |   subMatches < 0.5
|   |   |   |   inlinks < 13108
|   |   |   |   |   inlinks < 4546.5
|   |   |   |   |   |   inlinks < 4049
|   |   |   |   |   |   |   inlinks < 3262.5 : 1 (3/0)
|   |   |   |   |   |   |   inlinks >= 3262.5 : 0 (3/0)
|   |   |   |   |   |   inlinks >= 4049 : 1 (7/0)
|   |   |   |   |   inlinks >= 4546.5
|   |   |   |   |   |   inlinks < 9823.5
|   |   |   |   |   |   |   inlinks < 9045.5
|   |   |   |   |   |   |   |   inlinks < 7382.5
|   |   |   |   |   |   |   |   |   inlinks < 6779.5
|   |   |   |   |   |   |   |   |   |   inlinks < 4904 : 0 (3/0)
|   |   |   |   |   |   |   |   |   |   inlinks >= 4904
|   |   |   |   |   |   |   |   |   |   |   inlinks < 5332.5 : 1 (1/0)
|   |   |   |   |   |   |   |   |   |   |   inlinks >= 5332.5
|   |   |   |   |   |   |   |   |   |   |   |   inlinks < 5994.5 : 0 (4/0)
|   |   |   |   |   |   |   |   |   |   |   |   inlinks >= 5994.5
|   |   |   |   |   |   |   |   |   |   |   |   |   inlinks < 6078.5 : 1 (1/0)
|   |   |   |   |   |   |   |   |   |   |   |   |   inlinks >= 6078.5 : 0 (3/0)
|   |   |   |   |   |   |   |   |   inlinks >= 6779.5 : 1 (1/0)
|   |   |   |   |   |   |   |   inlinks >= 7382.5 : 0 (7/0)
|   |   |   |   |   |   |   inlinks >= 9045.5 : 1 (2/0)
|   |   |   |   |   |   inlinks >= 9823.5 : 0 (6/0)
|   |   |   |   inlinks >= 13108 : 1 (13/0)
|   |   |   subMatches >= 0.5
|   |   |   |   inlinks < 16098 : 0 (7/0)
|   |   |   |   inlinks >= 16098
|   |   |   |   |   strMatches < 0.5 : 0 (7/0)
|   |   |   |   |   strMatches >= 0.5 : 1 (1/0)
|   |   abbrMatch >= 0.5
|   |   |   inlinks < 226608
|   |   |   |   inlinks < 13043 : 1 (2/0)
|   |   |   |   inlinks >= 13043 : 0 (3/0)
|   |   |   inlinks >= 226608 : 1 (3/0)
subMatches >= 1.5
|   subMatches < 2.5
|   |   strMatches < 0.5 : 0 (8/0)
|   |   strMatches >= 0.5 : 1 (11/0)
|   subMatches >= 2.5 : 1 (1/0)

Size of the tree : 199


RandomTree
==========

inlinks < 3035.5
|   abbrMatch < 0.5
|   |   subMatches < 1.5
|   |   |   inlinks < 18
|   |   |   |   strMatches < 0.5
|   |   |   |   |   inlinks < 8.5 : 1 (1/0)
|   |   |   |   |   inlinks >= 8.5 : 0 (1/0)
|   |   |   |   strMatches >= 0.5
|   |   |   |   |   inlinks < 14
|   |   |   |   |   |   inlinks < 10.5
|   |   |   |   |   |   |   inlinks < 5.5
|   |   |   |   |   |   |   |   inlinks < 4.5
|   |   |   |   |   |   |   |   |   inlinks < 2.5
|   |   |   |   |   |   |   |   |   |   inlinks < 1.5 : 0 (3/1)
|   |   |   |   |   |   |   |   |   |   inlinks >= 1.5 : 1 (1/0)
|   |   |   |   |   |   |   |   |   inlinks >= 2.5
|   |   |   |   |   |   |   |   |   |   inlinks < 3.5 : 0 (1/0)
|   |   |   |   |   |   |   |   |   |   inlinks >= 3.5 : 0 (3/1)
|   |   |   |   |   |   |   |   inlinks >= 4.5 : 0 (5/0)
|   |   |   |   |   |   |   inlinks >= 5.5
|   |   |   |   |   |   |   |   inlinks < 8.5 : 1 (2/0)
|   |   |   |   |   |   |   |   inlinks >= 8.5
|   |   |   |   |   |   |   |   |   inlinks < 9.5 : 0 (1/0)
|   |   |   |   |   |   |   |   |   inlinks >= 9.5 : 1 (2/0)
|   |   |   |   |   |   inlinks >= 10.5 : 0 (3/0)
|   |   |   |   |   inlinks >= 14 : 1 (5/0)
|   |   |   inlinks >= 18
|   |   |   |   subMatches < 0.5
|   |   |   |   |   inlinks < 1289.5
|   |   |   |   |   |   inlinks < 916.5
|   |   |   |   |   |   |   inlinks < 911
|   |   |   |   |   |   |   |   inlinks < 699.5
|   |   |   |   |   |   |   |   |   inlinks < 698
|   |   |   |   |   |   |   |   |   |   inlinks < 23.5
|   |   |   |   |   |   |   |   |   |   |   inlinks < 20.5 : 0 (1/0)
|   |   |   |   |   |   |   |   |   |   |   inlinks >= 20.5 : 1 (1/0)
|   |   |   |   |   |   |   |   |   |   inlinks >= 23.5
|   |   |   |   |   |   |   |   |   |   |   inlinks < 207
|   |   |   |   |   |   |   |   |   |   |   |   inlinks < 122.5
|   |   |   |   |   |   |   |   |   |   |   |   |   inlinks < 120.5
|   |   |   |   |   |   |   |   |   |   |   |   |   |   inlinks < 94.5
|   |   |   |   |   |   |   |   |   |   |   |   |   |   |   inlinks < 87.5
|   |   |   |   |   |   |   |   |   |   |   |   |   |   |   |   inlinks < 72
|   |   |   |   |   |   |   |   |   |   |   |   |   |   |   |   |   inlinks < 70
|   |   |   |   |   |   |   |   |   |   |   |   |   |   |   |   |   |   inlinks < 59.5
|   |   |   |   |   |   |   |   |   |   |   |   |   |   |   |   |   |   |   inlinks < 58.5
|   |   |   |   |   |   |   |   |   |   |   |   |   |   |   |   |   |   |   |   inlinks < 40.5
|   |   |   |   |   |   |   |   |   |   |   |   |   |   |   |   |   |   |   |   |   inlinks < 31.5 : 0 (7/0)
|   |   |   |   |   |   |   |   |   |   |   |   |   |   |   |   |   |   |   |   |   inlinks >= 31.5
|   |   |   |   |   |   |   |   |   |   |   |   |   |   |   |   |   |   |   |   |   |   inlinks < 33.5 : 1 (1/0)
|   |   |   |   |   |   |   |   |   |   |   |   |   |   |   |   |   |   |   |   |   |   inlinks >= 33.5
|   |   |   |   |   |   |   |   |   |   |   |   |   |   |   |   |   |   |   |   |   |   |   inlinks < 36.5 : 0 (6/0)
|   |   |   |   |   |   |   |   |   |   |   |   |   |   |   |   |   |   |   |   |   |   |   inlinks >= 36.5
|   |   |   |   |   |   |   |   |   |   |   |   |   |   |   |   |   |   |   |   |   |   |   |   inlinks < 38.5 : 0 (2/1)
|   |   |   |   |   |   |   |   |   |   |   |   |   |   |   |   |   |   |   |   |   |   |   |   inlinks >= 38.5 : 0 (3/1)
|   |   |   |   |   |   |   |   |   |   |   |   |   |   |   |   |   |   |   |   inlinks >= 40.5 : 0 (23/0)
|   |   |   |   |   |   |   |   |   |   |   |   |   |   |   |   |   |   |   inlinks >= 58.5 : 1 (3/1)
|   |   |   |   |   |   |   |   |   |   |   |   |   |   |   |   |   |   inlinks >= 59.5 : 0 (8/0)
|   |   |   |   |   |   |   |   |   |   |   |   |   |   |   |   |   inlinks >= 70 : 1 (1/0)
|   |   |   |   |   |   |   |   |   |   |   |   |   |   |   |   inlinks >= 72 : 0 (11/0)
|   |   |   |   |   |   |   |   |   |   |   |   |   |   |   inlinks >= 87.5
|   |   |   |   |   |   |   |   |   |   |   |   |   |   |   |   inlinks < 91.5 : 0 (2/1)
|   |   |   |   |   |   |   |   |   |   |   |   |   |   |   |   inlinks >= 91.5
|   |   |   |   |   |   |   |   |   |   |   |   |   |   |   |   |   inlinks < 93 : 0 (1/0)
|   |   |   |   |   |   |   |   |   |   |   |   |   |   |   |   |   inlinks >= 93 : 0 (4/1)
|   |   |   |   |   |   |   |   |   |   |   |   |   |   inlinks >= 94.5 : 0 (23/0)
|   |   |   |   |   |   |   |   |   |   |   |   |   inlinks >= 120.5 : 1 (1/0)
|   |   |   |   |   |   |   |   |   |   |   |   inlinks >= 122.5 : 0 (25/0)
|   |   |   |   |   |   |   |   |   |   |   inlinks >= 207
|   |   |   |   |   |   |   |   |   |   |   |   inlinks < 233.5
|   |   |   |   |   |   |   |   |   |   |   |   |   inlinks < 222
|   |   |   |   |   |   |   |   |   |   |   |   |   |   inlinks < 210.5
|   |   |   |   |   |   |   |   |   |   |   |   |   |   |   inlinks < 209.5
|   |   |   |   |   |   |   |   |   |   |   |   |   |   |   |   inlinks < 208.5 : 1 (1/0)
|   |   |   |   |   |   |   |   |   |   |   |   |   |   |   |   inlinks >= 208.5 : 0 (1/0)
|   |   |   |   |   |   |   |   |   |   |   |   |   |   |   inlinks >= 209.5 : 1 (2/0)
|   |   |   |   |   |   |   |   |   |   |   |   |   |   inlinks >= 210.5
|   |   |   |   |   |   |   |   |   |   |   |   |   |   |   inlinks < 214.5 : 0 (3/0)
|   |   |   |   |   |   |   |   |   |   |   |   |   |   |   inlinks >= 214.5
|   |   |   |   |   |   |   |   |   |   |   |   |   |   |   |   inlinks < 215.5 : 0 (3/1)
|   |   |   |   |   |   |   |   |   |   |   |   |   |   |   |   inlinks >= 215.5 : 0 (2/0)
|   |   |   |   |   |   |   |   |   |   |   |   |   inlinks >= 222 : 1 (2/0)
|   |   |   |   |   |   |   |   |   |   |   |   inlinks >= 233.5
|   |   |   |   |   |   |   |   |   |   |   |   |   inlinks < 496
|   |   |   |   |   |   |   |   |   |   |   |   |   |   inlinks < 340
|   |   |   |   |   |   |   |   |   |   |   |   |   |   |   inlinks < 330 : 0 (18/0)
|   |   |   |   |   |   |   |   |   |   |   |   |   |   |   inlinks >= 330 : 1 (1/0)
|   |   |   |   |   |   |   |   |   |   |   |   |   |   inlinks >= 340 : 0 (21/0)
|   |   |   |   |   |   |   |   |   |   |   |   |   inlinks >= 496
|   |   |   |   |   |   |   |   |   |   |   |   |   |   inlinks < 503.5 : 1 (1/0)
|   |   |   |   |   |   |   |   |   |   |   |   |   |   inlinks >= 503.5
|   |   |   |   |   |   |   |   |   |   |   |   |   |   |   inlinks < 645 : 0 (10/0)
|   |   |   |   |   |   |   |   |   |   |   |   |   |   |   inlinks >= 645
|   |   |   |   |   |   |   |   |   |   |   |   |   |   |   |   inlinks < 662.5 : 1 (2/0)
|   |   |   |   |   |   |   |   |   |   |   |   |   |   |   |   inlinks >= 662.5 : 0 (7/0)
|   |   |   |   |   |   |   |   |   inlinks >= 698 : 1 (2/0)
|   |   |   |   |   |   |   |   inlinks >= 699.5 : 0 (15/0)
|   |   |   |   |   |   |   inlinks >= 911 : 1 (1/0)
|   |   |   |   |   |   inlinks >= 916.5 : 0 (15/0)
|   |   |   |   |   inlinks >= 1289.5
|   |   |   |   |   |   inlinks < 1316.5 : 1 (3/0)
|   |   |   |   |   |   inlinks >= 1316.5
|   |   |   |   |   |   |   inlinks < 1626 : 0 (8/0)
|   |   |   |   |   |   |   inlinks >= 1626
|   |   |   |   |   |   |   |   inlinks < 1689.5 : 1 (2/0)
|   |   |   |   |   |   |   |   inlinks >= 1689.5
|   |   |   |   |   |   |   |   |   inlinks < 2706
|   |   |   |   |   |   |   |   |   |   inlinks < 2375
|   |   |   |   |   |   |   |   |   |   |   inlinks < 2300.5
|   |   |   |   |   |   |   |   |   |   |   |   inlinks < 1741.5 : 0 (2/0)
|   |   |   |   |   |   |   |   |   |   |   |   inlinks >= 1741.5
|   |   |   |   |   |   |   |   |   |   |   |   |   inlinks < 1830 : 1 (1/0)
|   |   |   |   |   |   |   |   |   |   |   |   |   inlinks >= 1830
|   |   |   |   |   |   |   |   |   |   |   |   |   |   inlinks < 2115.5 : 0 (3/0)
|   |   |   |   |   |   |   |   |   |   |   |   |   |   inlinks >= 2115.5
|   |   |   |   |   |   |   |   |   |   |   |   |   |   |   inlinks < 2165.5 : 1 (1/0)
|   |   |   |   |   |   |   |   |   |   |   |   |   |   |   inlinks >= 2165.5 : 0 (2/0)
|   |   |   |   |   |   |   |   |   |   |   inlinks >= 2300.5 : 1 (1/0)
|   |   |   |   |   |   |   |   |   |   inlinks >= 2375
|   |   |   |   |   |   |   |   |   |   |   inlinks < 2474.5 : 0 (6/0)
|   |   |   |   |   |   |   |   |   |   |   inlinks >= 2474.5
|   |   |   |   |   |   |   |   |   |   |   |   inlinks < 2496 : 1 (1/0)
|   |   |   |   |   |   |   |   |   |   |   |   inlinks >= 2496 : 0 (2/0)
|   |   |   |   |   |   |   |   |   inlinks >= 2706 : 1 (1/0)
|   |   |   |   subMatches >= 0.5
|   |   |   |   |   strMatches < 0.5
|   |   |   |   |   |   inlinks < 413.5
|   |   |   |   |   |   |   inlinks < 405
|   |   |   |   |   |   |   |   inlinks < 135.5
|   |   |   |   |   |   |   |   |   inlinks < 127.5 : 0 (12/0)
|   |   |   |   |   |   |   |   |   inlinks >= 127.5 : 1 (1/0)
|   |   |   |   |   |   |   |   inlinks >= 135.5 : 0 (19/0)
|   |   |   |   |   |   |   inlinks >= 405 : 1 (1/0)
|   |   |   |   |   |   inlinks >= 413.5 : 0 (23/0)
|   |   |   |   |   strMatches >= 0.5
|   |   |   |   |   |   inlinks < 253 : 1 (1/0)
|   |   |   |   |   |   inlinks >= 253
|   |   |   |   |   |   |   inlinks < 1346 : 0 (1/0)
|   |   |   |   |   |   |   inlinks >= 1346 : 1 (1/0)
|   |   subMatches >= 1.5 : 1 (7/0)
|   abbrMatch >= 0.5
|   |   inlinks < 253 : 0 (14/0)
|   |   inlinks >= 253
|   |   |   inlinks < 260.5 : 1 (1/0)
|   |   |   inlinks >= 260.5
|   |   |   |   inlinks < 374.5 : 0 (3/0)
|   |   |   |   inlinks >= 374.5
|   |   |   |   |   inlinks < 450.5 : 1 (1/0)
|   |   |   |   |   inlinks >= 450.5
|   |   |   |   |   |   inlinks < 978 : 0 (2/0)
|   |   |   |   |   |   inlinks >= 978
|   |   |   |   |   |   |   inlinks < 1156 : 1 (1/0)
|   |   |   |   |   |   |   inlinks >= 1156
|   |   |   |   |   |   |   |   inlinks < 1849 : 0 (3/0)
|   |   |   |   |   |   |   |   inlinks >= 1849
|   |   |   |   |   |   |   |   |   inlinks < 1973 : 1 (1/0)
|   |   |   |   |   |   |   |   |   inlinks >= 1973 : 0 (2/0)
inlinks >= 3035.5
|   inlinks < 329877.5
|   |   strMatches < 0.5 : 0 (22/0)
|   |   strMatches >= 0.5
|   |   |   abbrMatch < 0.5
|   |   |   |   inlinks < 13108
|   |   |   |   |   subMatches < 1
|   |   |   |   |   |   inlinks < 4546.5
|   |   |   |   |   |   |   inlinks < 4049
|   |   |   |   |   |   |   |   inlinks < 3262.5 : 1 (3/0)
|   |   |   |   |   |   |   |   inlinks >= 3262.5 : 0 (3/0)
|   |   |   |   |   |   |   inlinks >= 4049 : 1 (7/0)
|   |   |   |   |   |   inlinks >= 4546.5
|   |   |   |   |   |   |   inlinks < 9823.5
|   |   |   |   |   |   |   |   inlinks < 9045.5
|   |   |   |   |   |   |   |   |   inlinks < 7382.5
|   |   |   |   |   |   |   |   |   |   inlinks < 6779.5
|   |   |   |   |   |   |   |   |   |   |   inlinks < 4904 : 0 (3/0)
|   |   |   |   |   |   |   |   |   |   |   inlinks >= 4904
|   |   |   |   |   |   |   |   |   |   |   |   inlinks < 5332.5 : 1 (1/0)
|   |   |   |   |   |   |   |   |   |   |   |   inlinks >= 5332.5
|   |   |   |   |   |   |   |   |   |   |   |   |   inlinks < 5994.5 : 0 (4/0)
|   |   |   |   |   |   |   |   |   |   |   |   |   inlinks >= 5994.5
|   |   |   |   |   |   |   |   |   |   |   |   |   |   inlinks < 6078.5 : 1 (1/0)
|   |   |   |   |   |   |   |   |   |   |   |   |   |   inlinks >= 6078.5 : 0 (3/0)
|   |   |   |   |   |   |   |   |   |   inlinks >= 6779.5 : 1 (1/0)
|   |   |   |   |   |   |   |   |   inlinks >= 7382.5 : 0 (7/0)
|   |   |   |   |   |   |   |   inlinks >= 9045.5 : 1 (2/0)
|   |   |   |   |   |   |   inlinks >= 9823.5 : 0 (6/0)
|   |   |   |   |   subMatches >= 1 : 1 (2/0)
|   |   |   |   inlinks >= 13108 : 1 (14/0)
|   |   |   abbrMatch >= 0.5
|   |   |   |   inlinks < 13043 : 1 (2/0)
|   |   |   |   inlinks >= 13043 : 0 (3/0)
|   inlinks >= 329877.5 : 1 (6/0)

Size of the tree : 193


RandomTree
==========

subMatches < 1.5
|   strMatches < 0.5
|   |   inlinks < 8.5 : 1 (1/0)
|   |   inlinks >= 8.5
|   |   |   inlinks < 413.5
|   |   |   |   inlinks < 405
|   |   |   |   |   inlinks < 135.5
|   |   |   |   |   |   inlinks < 127.5 : 0 (13/0)
|   |   |   |   |   |   inlinks >= 127.5 : 1 (1/0)
|   |   |   |   |   inlinks >= 135.5 : 0 (19/0)
|   |   |   |   inlinks >= 405 : 1 (1/0)
|   |   |   inlinks >= 413.5 : 0 (37/0)
|   strMatches >= 0.5
|   |   subMatches < 0.5
|   |   |   inlinks < 2474.5
|   |   |   |   inlinks < 23.5
|   |   |   |   |   inlinks < 14
|   |   |   |   |   |   inlinks < 10.5
|   |   |   |   |   |   |   inlinks < 5.5
|   |   |   |   |   |   |   |   inlinks < 4.5
|   |   |   |   |   |   |   |   |   inlinks < 2.5
|   |   |   |   |   |   |   |   |   |   inlinks < 1.5 : 0 (3/1)
|   |   |   |   |   |   |   |   |   |   inlinks >= 1.5 : 1 (1/0)
|   |   |   |   |   |   |   |   |   inlinks >= 2.5
|   |   |   |   |   |   |   |   |   |   inlinks < 3.5 : 0 (1/0)
|   |   |   |   |   |   |   |   |   |   inlinks >= 3.5 : 0 (3/1)
|   |   |   |   |   |   |   |   inlinks >= 4.5 : 0 (5/0)
|   |   |   |   |   |   |   inlinks >= 5.5
|   |   |   |   |   |   |   |   inlinks < 8.5 : 1 (2/0)
|   |   |   |   |   |   |   |   inlinks >= 8.5
|   |   |   |   |   |   |   |   |   inlinks < 9.5 : 0 (1/0)
|   |   |   |   |   |   |   |   |   inlinks >= 9.5 : 1 (2/0)
|   |   |   |   |   |   inlinks >= 10.5 : 0 (3/0)
|   |   |   |   |   inlinks >= 14
|   |   |   |   |   |   inlinks < 18 : 1 (5/0)
|   |   |   |   |   |   inlinks >= 18
|   |   |   |   |   |   |   inlinks < 20.5 : 0 (1/0)
|   |   |   |   |   |   |   inlinks >= 20.5 : 1 (1/0)
|   |   |   |   inlinks >= 23.5
|   |   |   |   |   inlinks < 207
|   |   |   |   |   |   abbrMatch < 0.5
|   |   |   |   |   |   |   inlinks < 122.5
|   |   |   |   |   |   |   |   inlinks < 120.5
|   |   |   |   |   |   |   |   |   inlinks < 94.5
|   |   |   |   |   |   |   |   |   |   inlinks < 87.5
|   |   |   |   |   |   |   |   |   |   |   inlinks < 72
|   |   |   |   |   |   |   |   |   |   |   |   inlinks < 70
|   |   |   |   |   |   |   |   |   |   |   |   |   inlinks < 59.5
|   |   |   |   |   |   |   |   |   |   |   |   |   |   inlinks < 58.5
|   |   |   |   |   |   |   |   |   |   |   |   |   |   |   inlinks < 40.5
|   |   |   |   |   |   |   |   |   |   |   |   |   |   |   |   inlinks < 31.5 : 0 (7/0)
|   |   |   |   |   |   |   |   |   |   |   |   |   |   |   |   inlinks >= 31.5
|   |   |   |   |   |   |   |   |   |   |   |   |   |   |   |   |   inlinks < 33.5 : 1 (1/0)
|   |   |   |   |   |   |   |   |   |   |   |   |   |   |   |   |   inlinks >= 33.5
|   |   |   |   |   |   |   |   |   |   |   |   |   |   |   |   |   |   inlinks < 36.5 : 0 (6/0)
|   |   |   |   |   |   |   |   |   |   |   |   |   |   |   |   |   |   inlinks >= 36.5
|   |   |   |   |   |   |   |   |   |   |   |   |   |   |   |   |   |   |   inlinks < 38.5 : 0 (2/1)
|   |   |   |   |   |   |   |   |   |   |   |   |   |   |   |   |   |   |   inlinks >= 38.5 : 0 (3/1)
|   |   |   |   |   |   |   |   |   |   |   |   |   |   |   inlinks >= 40.5 : 0 (23/0)
|   |   |   |   |   |   |   |   |   |   |   |   |   |   inlinks >= 58.5 : 1 (3/1)
|   |   |   |   |   |   |   |   |   |   |   |   |   inlinks >= 59.5 : 0 (8/0)
|   |   |   |   |   |   |   |   |   |   |   |   inlinks >= 70 : 1 (1/0)
|   |   |   |   |   |   |   |   |   |   |   inlinks >= 72 : 0 (11/0)
|   |   |   |   |   |   |   |   |   |   inlinks >= 87.5
|   |   |   |   |   |   |   |   |   |   |   inlinks < 91.5 : 0 (2/1)
|   |   |   |   |   |   |   |   |   |   |   inlinks >= 91.5
|   |   |   |   |   |   |   |   |   |   |   |   inlinks < 93 : 0 (1/0)
|   |   |   |   |   |   |   |   |   |   |   |   inlinks >= 93 : 0 (4/1)
|   |   |   |   |   |   |   |   |   inlinks >= 94.5 : 0 (23/0)
|   |   |   |   |   |   |   |   inlinks >= 120.5 : 1 (1/0)
|   |   |   |   |   |   |   inlinks >= 122.5 : 0 (25/0)
|   |   |   |   |   |   abbrMatch >= 0.5 : 0 (12/0)
|   |   |   |   |   inlinks >= 207
|   |   |   |   |   |   inlinks < 210.5
|   |   |   |   |   |   |   inlinks < 209.5
|   |   |   |   |   |   |   |   inlinks < 208.5 : 1 (1/0)
|   |   |   |   |   |   |   |   inlinks >= 208.5 : 0 (1/0)
|   |   |   |   |   |   |   inlinks >= 209.5 : 1 (2/0)
|   |   |   |   |   |   inlinks >= 210.5
|   |   |   |   |   |   |   abbrMatch < 0.5
|   |   |   |   |   |   |   |   inlinks < 1289.5
|   |   |   |   |   |   |   |   |   inlinks < 233.5
|   |   |   |   |   |   |   |   |   |   inlinks < 222
|   |   |   |   |   |   |   |   |   |   |   inlinks < 214.5 : 0 (3/0)
|   |   |   |   |   |   |   |   |   |   |   inlinks >= 214.5
|   |   |   |   |   |   |   |   |   |   |   |   inlinks < 215.5 : 0 (3/1)
|   |   |   |   |   |   |   |   |   |   |   |   inlinks >= 215.5 : 0 (2/0)
|   |   |   |   |   |   |   |   |   |   inlinks >= 222 : 1 (2/0)
|   |   |   |   |   |   |   |   |   inlinks >= 233.5
|   |   |   |   |   |   |   |   |   |   inlinks < 330 : 0 (18/0)
|   |   |   |   |   |   |   |   |   |   inlinks >= 330
|   |   |   |   |   |   |   |   |   |   |   inlinks < 340 : 1 (1/0)
|   |   |   |   |   |   |   |   |   |   |   inlinks >= 340
|   |   |   |   |   |   |   |   |   |   |   |   inlinks < 496 : 0 (21/0)
|   |   |   |   |   |   |   |   |   |   |   |   inlinks >= 496
|   |   |   |   |   |   |   |   |   |   |   |   |   inlinks < 699.5
|   |   |   |   |   |   |   |   |   |   |   |   |   |   inlinks < 698
|   |   |   |   |   |   |   |   |   |   |   |   |   |   |   inlinks < 503.5 : 1 (1/0)
|   |   |   |   |   |   |   |   |   |   |   |   |   |   |   inlinks >= 503.5
|   |   |   |   |   |   |   |   |   |   |   |   |   |   |   |   inlinks < 645 : 0 (10/0)
|   |   |   |   |   |   |   |   |   |   |   |   |   |   |   |   inlinks >= 645
|   |   |   |   |   |   |   |   |   |   |   |   |   |   |   |   |   inlinks < 662.5 : 1 (2/0)
|   |   |   |   |   |   |   |   |   |   |   |   |   |   |   |   |   inlinks >= 662.5 : 0 (7/0)
|   |   |   |   |   |   |   |   |   |   |   |   |   |   inlinks >= 698 : 1 (2/0)
|   |   |   |   |   |   |   |   |   |   |   |   |   inlinks >= 699.5
|   |   |   |   |   |   |   |   |   |   |   |   |   |   inlinks < 911 : 0 (15/0)
|   |   |   |   |   |   |   |   |   |   |   |   |   |   inlinks >= 911
|   |   |   |   |   |   |   |   |   |   |   |   |   |   |   inlinks < 916.5 : 1 (1/0)
|   |   |   |   |   |   |   |   |   |   |   |   |   |   |   inlinks >= 916.5 : 0 (15/0)
|   |   |   |   |   |   |   |   inlinks >= 1289.5
|   |   |   |   |   |   |   |   |   inlinks < 1316.5 : 1 (3/0)
|   |   |   |   |   |   |   |   |   inlinks >= 1316.5
|   |   |   |   |   |   |   |   |   |   inlinks < 1626 : 0 (8/0)
|   |   |   |   |   |   |   |   |   |   inlinks >= 1626
|   |   |   |   |   |   |   |   |   |   |   inlinks < 1689.5 : 1 (2/0)
|   |   |   |   |   |   |   |   |   |   |   inlinks >= 1689.5
|   |   |   |   |   |   |   |   |   |   |   |   inlinks < 2375
|   |   |   |   |   |   |   |   |   |   |   |   |   inlinks < 2300.5
|   |   |   |   |   |   |   |   |   |   |   |   |   |   inlinks < 1741.5 : 0 (2/0)
|   |   |   |   |   |   |   |   |   |   |   |   |   |   inlinks >= 1741.5
|   |   |   |   |   |   |   |   |   |   |   |   |   |   |   inlinks < 1830 : 1 (1/0)
|   |   |   |   |   |   |   |   |   |   |   |   |   |   |   inlinks >= 1830
|   |   |   |   |   |   |   |   |   |   |   |   |   |   |   |   inlinks < 2115.5 : 0 (3/0)
|   |   |   |   |   |   |   |   |   |   |   |   |   |   |   |   inlinks >= 2115.5
|   |   |   |   |   |   |   |   |   |   |   |   |   |   |   |   |   inlinks < 2165.5 : 1 (1/0)
|   |   |   |   |   |   |   |   |   |   |   |   |   |   |   |   |   inlinks >= 2165.5 : 0 (2/0)
|   |   |   |   |   |   |   |   |   |   |   |   |   inlinks >= 2300.5 : 1 (1/0)
|   |   |   |   |   |   |   |   |   |   |   |   inlinks >= 2375 : 0 (6/0)
|   |   |   |   |   |   |   abbrMatch >= 0.5
|   |   |   |   |   |   |   |   inlinks < 253 : 0 (2/0)
|   |   |   |   |   |   |   |   inlinks >= 253
|   |   |   |   |   |   |   |   |   inlinks < 260.5 : 1 (1/0)
|   |   |   |   |   |   |   |   |   inlinks >= 260.5
|   |   |   |   |   |   |   |   |   |   inlinks < 374.5 : 0 (3/0)
|   |   |   |   |   |   |   |   |   |   inlinks >= 374.5
|   |   |   |   |   |   |   |   |   |   |   inlinks < 450.5 : 1 (1/0)
|   |   |   |   |   |   |   |   |   |   |   inlinks >= 450.5
|   |   |   |   |   |   |   |   |   |   |   |   inlinks < 978 : 0 (2/0)
|   |   |   |   |   |   |   |   |   |   |   |   inlinks >= 978
|   |   |   |   |   |   |   |   |   |   |   |   |   inlinks < 1156 : 1 (1/0)
|   |   |   |   |   |   |   |   |   |   |   |   |   inlinks >= 1156
|   |   |   |   |   |   |   |   |   |   |   |   |   |   inlinks < 1849 : 0 (3/0)
|   |   |   |   |   |   |   |   |   |   |   |   |   |   inlinks >= 1849
|   |   |   |   |   |   |   |   |   |   |   |   |   |   |   inlinks < 1973 : 1 (1/0)
|   |   |   |   |   |   |   |   |   |   |   |   |   |   |   inlinks >= 1973 : 0 (1/0)
|   |   |   inlinks >= 2474.5
|   |   |   |   abbrMatch < 0.5
|   |   |   |   |   inlinks < 13108
|   |   |   |   |   |   inlinks < 4546.5
|   |   |   |   |   |   |   inlinks < 4049
|   |   |   |   |   |   |   |   inlinks < 3262.5
|   |   |   |   |   |   |   |   |   inlinks < 2706
|   |   |   |   |   |   |   |   |   |   inlinks < 2496 : 1 (1/0)
|   |   |   |   |   |   |   |   |   |   inlinks >= 2496 : 0 (2/0)
|   |   |   |   |   |   |   |   |   inlinks >= 2706 : 1 (4/0)
|   |   |   |   |   |   |   |   inlinks >= 3262.5 : 0 (3/0)
|   |   |   |   |   |   |   inlinks >= 4049 : 1 (7/0)
|   |   |   |   |   |   inlinks >= 4546.5
|   |   |   |   |   |   |   inlinks < 9823.5
|   |   |   |   |   |   |   |   inlinks < 9045.5
|   |   |   |   |   |   |   |   |   inlinks < 7382.5
|   |   |   |   |   |   |   |   |   |   inlinks < 6779.5
|   |   |   |   |   |   |   |   |   |   |   inlinks < 4904 : 0 (3/0)
|   |   |   |   |   |   |   |   |   |   |   inlinks >= 4904
|   |   |   |   |   |   |   |   |   |   |   |   inlinks < 5332.5 : 1 (1/0)
|   |   |   |   |   |   |   |   |   |   |   |   inlinks >= 5332.5
|   |   |   |   |   |   |   |   |   |   |   |   |   inlinks < 5994.5 : 0 (4/0)
|   |   |   |   |   |   |   |   |   |   |   |   |   inlinks >= 5994.5
|   |   |   |   |   |   |   |   |   |   |   |   |   |   inlinks < 6078.5 : 1 (1/0)
|   |   |   |   |   |   |   |   |   |   |   |   |   |   inlinks >= 6078.5 : 0 (3/0)
|   |   |   |   |   |   |   |   |   |   inlinks >= 6779.5 : 1 (1/0)
|   |   |   |   |   |   |   |   |   inlinks >= 7382.5 : 0 (7/0)
|   |   |   |   |   |   |   |   inlinks >= 9045.5 : 1 (2/0)
|   |   |   |   |   |   |   inlinks >= 9823.5 : 0 (6/0)
|   |   |   |   |   inlinks >= 13108 : 1 (13/0)
|   |   |   |   abbrMatch >= 0.5
|   |   |   |   |   inlinks < 226608
|   |   |   |   |   |   inlinks < 13043
|   |   |   |   |   |   |   inlinks < 3285.5 : 0 (1/0)
|   |   |   |   |   |   |   inlinks >= 3285.5 : 1 (2/0)
|   |   |   |   |   |   inlinks >= 13043 : 0 (3/0)
|   |   |   |   |   inlinks >= 226608 : 1 (3/0)
|   |   subMatches >= 0.5
|   |   |   inlinks < 1346
|   |   |   |   inlinks < 253 : 1 (1/0)
|   |   |   |   inlinks >= 253 : 0 (1/0)
|   |   |   inlinks >= 1346 : 1 (2/0)
subMatches >= 1.5
|   inlinks < 12058.5 : 1 (9/0)
|   inlinks >= 12058.5
|   |   strMatches < 0.5 : 0 (8/0)
|   |   strMatches >= 0.5 : 1 (3/0)

Size of the tree : 193


RandomTree
==========

strMatches < 0.5
|   subMatches < 1.5
|   |   inlinks < 8.5 : 1 (1/0)
|   |   inlinks >= 8.5
|   |   |   inlinks < 413.5
|   |   |   |   inlinks < 405
|   |   |   |   |   inlinks < 135.5
|   |   |   |   |   |   inlinks < 127.5 : 0 (13/0)
|   |   |   |   |   |   inlinks >= 127.5 : 1 (1/0)
|   |   |   |   |   inlinks >= 135.5 : 0 (19/0)
|   |   |   |   inlinks >= 405 : 1 (1/0)
|   |   |   inlinks >= 413.5 : 0 (37/0)
|   subMatches >= 1.5 : 0 (8/0)
strMatches >= 0.5
|   subMatches < 0.5
|   |   abbrMatch < 0.5
|   |   |   inlinks < 13108
|   |   |   |   inlinks < 1289.5
|   |   |   |   |   inlinks < 23.5
|   |   |   |   |   |   inlinks < 14
|   |   |   |   |   |   |   inlinks < 10.5
|   |   |   |   |   |   |   |   inlinks < 5.5
|   |   |   |   |   |   |   |   |   inlinks < 4.5
|   |   |   |   |   |   |   |   |   |   inlinks < 2.5
|   |   |   |   |   |   |   |   |   |   |   inlinks < 1.5 : 0 (3/1)
|   |   |   |   |   |   |   |   |   |   |   inlinks >= 1.5 : 1 (1/0)
|   |   |   |   |   |   |   |   |   |   inlinks >= 2.5
|   |   |   |   |   |   |   |   |   |   |   inlinks < 3.5 : 0 (1/0)
|   |   |   |   |   |   |   |   |   |   |   inlinks >= 3.5 : 0 (3/1)
|   |   |   |   |   |   |   |   |   inlinks >= 4.5 : 0 (5/0)
|   |   |   |   |   |   |   |   inlinks >= 5.5
|   |   |   |   |   |   |   |   |   inlinks < 8.5 : 1 (2/0)
|   |   |   |   |   |   |   |   |   inlinks >= 8.5
|   |   |   |   |   |   |   |   |   |   inlinks < 9.5 : 0 (1/0)
|   |   |   |   |   |   |   |   |   |   inlinks >= 9.5 : 1 (2/0)
|   |   |   |   |   |   |   inlinks >= 10.5 : 0 (3/0)
|   |   |   |   |   |   inlinks >= 14
|   |   |   |   |   |   |   inlinks < 18 : 1 (5/0)
|   |   |   |   |   |   |   inlinks >= 18
|   |   |   |   |   |   |   |   inlinks < 20.5 : 0 (1/0)
|   |   |   |   |   |   |   |   inlinks >= 20.5 : 1 (1/0)
|   |   |   |   |   inlinks >= 23.5
|   |   |   |   |   |   inlinks < 916.5
|   |   |   |   |   |   |   inlinks < 911
|   |   |   |   |   |   |   |   inlinks < 699.5
|   |   |   |   |   |   |   |   |   inlinks < 698
|   |   |   |   |   |   |   |   |   |   inlinks < 207
|   |   |   |   |   |   |   |   |   |   |   inlinks < 122.5
|   |   |   |   |   |   |   |   |   |   |   |   inlinks < 120.5
|   |   |   |   |   |   |   |   |   |   |   |   |   inlinks < 94.5
|   |   |   |   |   |   |   |   |   |   |   |   |   |   inlinks < 87.5
|   |   |   |   |   |   |   |   |   |   |   |   |   |   |   inlinks < 72
|   |   |   |   |   |   |   |   |   |   |   |   |   |   |   |   inlinks < 70
|   |   |   |   |   |   |   |   |   |   |   |   |   |   |   |   |   inlinks < 59.5
|   |   |   |   |   |   |   |   |   |   |   |   |   |   |   |   |   |   inlinks < 58.5
|   |   |   |   |   |   |   |   |   |   |   |   |   |   |   |   |   |   |   inlinks < 40.5
|   |   |   |   |   |   |   |   |   |   |   |   |   |   |   |   |   |   |   |   inlinks < 31.5 : 0 (7/0)
|   |   |   |   |   |   |   |   |   |   |   |   |   |   |   |   |   |   |   |   inlinks >= 31.5
|   |   |   |   |   |   |   |   |   |   |   |   |   |   |   |   |   |   |   |   |   inlinks < 33.5 : 1 (1/0)
|   |   |   |   |   |   |   |   |   |   |   |   |   |   |   |   |   |   |   |   |   inlinks >= 33.5
|   |   |   |   |   |   |   |   |   |   |   |   |   |   |   |   |   |   |   |   |   |   inlinks < 36.5 : 0 (6/0)
|   |   |   |   |   |   |   |   |   |   |   |   |   |   |   |   |   |   |   |   |   |   inlinks >= 36.5
|   |   |   |   |   |   |   |   |   |   |   |   |   |   |   |   |   |   |   |   |   |   |   inlinks < 38.5 : 0 (2/1)
|   |   |   |   |   |   |   |   |   |   |   |   |   |   |   |   |   |   |   |   |   |   |   inlinks >= 38.5 : 0 (3/1)
|   |   |   |   |   |   |   |   |   |   |   |   |   |   |   |   |   |   |   inlinks >= 40.5 : 0 (23/0)
|   |   |   |   |   |   |   |   |   |   |   |   |   |   |   |   |   |   inlinks >= 58.5 : 1 (3/1)
|   |   |   |   |   |   |   |   |   |   |   |   |   |   |   |   |   inlinks >= 59.5 : 0 (8/0)
|   |   |   |   |   |   |   |   |   |   |   |   |   |   |   |   inlinks >= 70 : 1 (1/0)
|   |   |   |   |   |   |   |   |   |   |   |   |   |   |   inlinks >= 72 : 0 (11/0)
|   |   |   |   |   |   |   |   |   |   |   |   |   |   inlinks >= 87.5
|   |   |   |   |   |   |   |   |   |   |   |   |   |   |   inlinks < 91.5 : 0 (2/1)
|   |   |   |   |   |   |   |   |   |   |   |   |   |   |   inlinks >= 91.5
|   |   |   |   |   |   |   |   |   |   |   |   |   |   |   |   inlinks < 93 : 0 (1/0)
|   |   |   |   |   |   |   |   |   |   |   |   |   |   |   |   inlinks >= 93 : 0 (4/1)
|   |   |   |   |   |   |   |   |   |   |   |   |   inlinks >= 94.5 : 0 (23/0)
|   |   |   |   |   |   |   |   |   |   |   |   inlinks >= 120.5 : 1 (1/0)
|   |   |   |   |   |   |   |   |   |   |   inlinks >= 122.5 : 0 (25/0)
|   |   |   |   |   |   |   |   |   |   inlinks >= 207
|   |   |   |   |   |   |   |   |   |   |   inlinks < 233.5
|   |   |   |   |   |   |   |   |   |   |   |   inlinks < 222
|   |   |   |   |   |   |   |   |   |   |   |   |   inlinks < 210.5
|   |   |   |   |   |   |   |   |   |   |   |   |   |   inlinks < 209.5
|   |   |   |   |   |   |   |   |   |   |   |   |   |   |   inlinks < 208.5 : 1 (1/0)
|   |   |   |   |   |   |   |   |   |   |   |   |   |   |   inlinks >= 208.5 : 0 (1/0)
|   |   |   |   |   |   |   |   |   |   |   |   |   |   inlinks >= 209.5 : 1 (2/0)
|   |   |   |   |   |   |   |   |   |   |   |   |   inlinks >= 210.5
|   |   |   |   |   |   |   |   |   |   |   |   |   |   inlinks < 214.5 : 0 (3/0)
|   |   |   |   |   |   |   |   |   |   |   |   |   |   inlinks >= 214.5
|   |   |   |   |   |   |   |   |   |   |   |   |   |   |   inlinks < 215.5 : 0 (3/1)
|   |   |   |   |   |   |   |   |   |   |   |   |   |   |   inlinks >= 215.5 : 0 (2/0)
|   |   |   |   |   |   |   |   |   |   |   |   inlinks >= 222 : 1 (2/0)
|   |   |   |   |   |   |   |   |   |   |   inlinks >= 233.5
|   |   |   |   |   |   |   |   |   |   |   |   inlinks < 496
|   |   |   |   |   |   |   |   |   |   |   |   |   inlinks < 340
|   |   |   |   |   |   |   |   |   |   |   |   |   |   inlinks < 330 : 0 (18/0)
|   |   |   |   |   |   |   |   |   |   |   |   |   |   inlinks >= 330 : 1 (1/0)
|   |   |   |   |   |   |   |   |   |   |   |   |   inlinks >= 340 : 0 (21/0)
|   |   |   |   |   |   |   |   |   |   |   |   inlinks >= 496
|   |   |   |   |   |   |   |   |   |   |   |   |   inlinks < 503.5 : 1 (1/0)
|   |   |   |   |   |   |   |   |   |   |   |   |   inlinks >= 503.5
|   |   |   |   |   |   |   |   |   |   |   |   |   |   inlinks < 645 : 0 (10/0)
|   |   |   |   |   |   |   |   |   |   |   |   |   |   inlinks >= 645
|   |   |   |   |   |   |   |   |   |   |   |   |   |   |   inlinks < 662.5 : 1 (2/0)
|   |   |   |   |   |   |   |   |   |   |   |   |   |   |   inlinks >= 662.5 : 0 (7/0)
|   |   |   |   |   |   |   |   |   inlinks >= 698 : 1 (2/0)
|   |   |   |   |   |   |   |   inlinks >= 699.5 : 0 (15/0)
|   |   |   |   |   |   |   inlinks >= 911 : 1 (1/0)
